loss,margin,positive_reward,negative_reward,deterministic_return
0.0,0.0,0.0,0.0,2.626249569442986
-3816.4345703125,818.8093306571245,4205.836989343166,3387.027658686042,860.803174071979
-5325.626953125,178.54571723937988,5757.701085090637,5579.155367851257,760.3724585646858
-5729.18896484375,147.20208263397217,6158.118455886841,6010.916373252869,590.9828296703781
-6085.9765625,151.08268070220947,6510.285523414612,6359.202842712402,823.8023729437497
-6273.01806640625,156.52266693115234,6695.235301971436,6538.712635040283,1654.5406668557018
-6505.1474609375,165.64898777008057,6924.863295555115,6759.214307785034,1238.5430661878372
-6660.8095703125,169.78475189208984,7078.869891166687,6909.085139274597,1249.0796169023902
-6740.150390625,165.07748317718506,7158.568145751953,6993.490662574768,1359.1967605964292
-6927.17138671875,163.45481204986572,7344.8751220703125,7181.420310020447,920.5348688641492
-7070.88232421875,181.8384666442871,7484.684100151062,7302.845633506775,1316.4182047412987
-7144.07861328125,170.8723440170288,7559.511068344116,7388.638724327087,1087.7187192437752
-7250.89013671875,167.99296188354492,7665.451910018921,7497.458948135376,1018.1185405092298
-7296.50439453125,150.19774913787842,7713.994154930115,7563.796405792236,2829.8753297151566
-7261.3740234375,123.00048351287842,7684.364217758179,7561.3637342453,1288.7557785106094
-7456.7861328125,165.75501918792725,7871.411920547485,7705.656901359558,825.0502634414909
-7556.63818359375,151.93434143066406,7972.831295013428,7820.896953582764,848.940620815582
-7665.6533203125,148.16259288787842,8081.660185813904,7933.497592926025,1050.8522644859318
-7546.6591796875,113.09250211715698,7969.884964466095,7856.792462348938,952.8152375950473
-7581.06005859375,103.01855707168579,8005.914834737778,7902.896277666092,976.1756627134114
-7741.72705078125,128.60964012145996,8161.69288444519,8033.0832443237305,878.4118154741136
-7879.1279296875,132.08783435821533,8297.209834098816,8165.121999740601,843.5425413013222
-7654.63818359375,66.98881530761719,8085.493802070618,8018.5049867630005,946.5037694275662
-8003.16552734375,152.37364292144775,8417.539536476135,8265.165893554688,826.5298614358019
-7997.583984375,120.59042930603027,8417.20777797699,8296.61734867096,817.620773451005
-8059.9091796875,138.29113006591797,8476.606574058533,8338.315443992615,831.2273302607892
-8054.7841796875,111.92705726623535,8475.943165779114,8364.016108512878,969.9444743711581
-8062.158203125,99.3493824005127,8486.95721244812,8387.607830047607,1180.2033685451104
-8137.31689453125,122.04601860046387,8556.070172309875,8434.024153709412,892.351967950121
-8207.5361328125,118.09385299682617,8627.479151725769,8509.385298728943,840.7415035434028
-8228.5263671875,119.84095907211304,8648.318430900574,8528.47747182846,989.1954460512993
-8347.1083984375,124.82521438598633,8765.270817756653,8640.445603370667,1013.6306956273388
-8355.4736328125,118.52484893798828,8774.90121269226,8656.376363754272,945.0806862039483
-8377.685546875,121.30505466461182,8796.27066040039,8674.965605735779,866.6973493623046
-8334.61328125,108.5669436454773,8756.255011081696,8647.688067436218,871.9205054676213
-8416.509765625,102.42394924163818,8838.224021911621,8735.800072669983,1023.7809789378737
-8382.8642578125,93.29580736160278,8806.881236553192,8713.58542919159,1348.000027613459
-8502.859375,119.73869228363037,8921.276175498962,8801.537483215332,878.1883347140321
-8611.3798828125,126.09393692016602,9028.802330970764,8902.708394050598,822.1119337491149
-8543.14453125,107.02120018005371,8963.471999168396,8856.450798988342,957.187811570025
-8441.04296875,84.16272830963135,8867.28192615509,8783.119197845459,1949.645083076097
-8496.1171875,97.81655740737915,8919.666165828705,8821.849608421326,914.3266829695516
-8698.779296875,123.54380702972412,9116.287156105042,8992.743349075317,925.8437535270089
-8608.3134765625,99.77216005325317,9030.575396060944,8930.80323600769,866.6349684964307
-8712.6298828125,126.16552829742432,9130.510371208191,9004.344842910767,1147.3631492113022
-8782.3134765625,122.64167976379395,9200.017562866211,9077.375883102417,999.4625349336748
-8710.20703125,112.38596057891846,9130.347060203552,9017.961099624634,1047.8733784274934
-8854.3720703125,128.75449752807617,9270.318174362183,9141.563676834106,1344.3025083588163
-8821.115234375,113.81013298034668,9240.104835510254,9126.294702529907,1326.2164998329574
-8766.94921875,108.59184265136719,9187.974984169006,9079.38314151764,2194.32814384279
-8867.2119140625,104.56616687774658,9287.269453048706,9182.70328617096,2270.093519965973
-8782.0380859375,103.56810855865479,9204.194974899292,9100.626866340637,935.8353449571962
-8948.505859375,127.19318771362305,9365.36487865448,9238.171690940857,509.27396747053814
-9009.68359375,131.83035850524902,9424.939052581787,9293.108694076538,1400.2222324370493
-8898.2958984375,108.89613246917725,9317.858702659607,9208.96257019043,975.1608318720172
-9020.2802734375,128.06659030914307,9436.927690505981,9308.861100196838,912.7362611794076
-8884.5927734375,95.78440237045288,9307.20185995102,9211.417457580566,433.55666953796884
-9024.12890625,112.83219718933105,9443.11135673523,9330.279159545898,800.6729404417894
-8962.1923828125,99.53647994995117,9384.246368408203,9284.709888458252,2185.898770094024
-8760.5791015625,21.52792724967003,9195.60117277503,9174.07324552536,444.15647308475974
-9131.2900390625,134.97612762451172,9546.21196937561,9411.235841751099,535.5121779042842
-9128.5439453125,124.48684215545654,9545.788928985596,9421.30208683014,1426.1626951378612
-9084.5849609375,112.69188213348389,9503.828840255737,9391.136958122253,907.5744267375774
-9102.0078125,96.76399850845337,9524.164744853973,9427.40074634552,1497.3876765887205
-9116.7626953125,117.4735460281372,9534.982810974121,9417.509264945984,780.8166991256941
-9120.7509765625,94.85571479797363,9542.702561378479,9447.846846580505,1309.518412526055
-9202.5107421875,123.04849815368652,9619.928918838501,9496.880420684814,784.4475954780505
-9202.9130859375,114.65958881378174,9621.35184955597,9506.692260742188,971.1922196061151
-9087.033203125,61.15090377628803,9514.564287260175,9453.413383483887,426.5226559967509
-8792.7509765625,14.312402248382568,9230.574158668518,9216.261756420135,2786.5467458386165
-9290.333984375,126.58548355102539,9706.23104095459,9579.645557403564,1917.5694370840768
-9308.34375,113.4879093170166,9726.252843856812,9612.764934539795,922.2101660408408
-9138.0185546875,91.48930180072784,9562.015887379646,9470.526585578918,866.2980104038415
-9385.48046875,130.0751142501831,9801.103507995605,9671.028393745422,490.70779541563377
-9255.5673828125,93.92929458618164,9677.735958099365,9583.806663513184,991.3709130538198
-9245.6328125,106.49528789520264,9666.092657089233,9559.59736919403,433.36435935942995
-9277.0615234375,94.78955936431885,9699.179989814758,9604.39043045044,795.6712224801261
-9184.4404296875,83.650062084198,9609.553777694702,9525.903715610504,1015.6658956129469
-9410.310546875,117.15524387359619,9827.067297935486,9709.91205406189,576.1244445186753
-9339.1142578125,89.34286499023438,9761.497626304626,9672.154761314392,1282.4266269149425
-9408.107421875,129.11355876922607,9824.234754562378,9695.121195793152,445.1047609108645
-9437.435546875,115.60176372528076,9854.965466499329,9739.363702774048,446.27911008322417
-9338.3916015625,83.98259925842285,9761.652199745178,9677.669600486755,465.84260178824604
-9450.1982421875,122.12772274017334,9867.60695362091,9745.479230880737,4624.572997361129
-9444.2578125,102.84588241577148,9864.38663482666,9761.540752410889,885.5594188033303
-9415.197265625,92.85505771636963,9837.58526134491,9744.73020362854,773.9933261777419
-9477.2587890625,113.67548179626465,9895.5460729599,9781.870591163635,472.8007568371414
-9393.318359375,89.11790347099304,9815.9799888134,9726.862085342407,1438.2897364318583
-9382.369140625,94.04724025726318,9804.640139579773,9710.59289932251,803.2788447015429
-9433.0927734375,72.17382955551147,9858.532525539398,9786.358695983887,541.7279707073749
-9305.0224609375,65.89255464076996,9732.639695167542,9666.747140526772,526.1855536755969
-9604.6494140625,130.1673412322998,10019.529049873352,9889.361708641052,863.442627323886
-9563.9677734375,98.7299011349678,9984.687192261219,9885.957291126251,1543.9218283790613
-9411.255859375,77.70197916030884,9836.388689517975,9758.686710357666,1375.5674400893665
-9562.79296875,117.41902446746826,9980.544289588928,9863.12526512146,977.6366522280325
-9513.9755859375,93.60304069519043,9935.931361198425,9842.328320503235,1026.0083308141009
-9603.751953125,108.18925952911377,10022.567511558533,9914.378252029419,871.4529853375235
-9535.9306640625,85.18254661560059,9958.71262550354,9873.53007888794,506.62634147978764
-9702.845703125,129.8478603363037,10117.754224777222,9987.906364440918,851.3197563381898
-9583.7646484375,98.58327770233154,10004.813380241394,9906.230102539062,974.86104156267
-9656.7822265625,113.37247943878174,10074.524569511414,9961.152090072632,1015.9894569049096
-9552.8447265625,92.17454528808594,9975.214423179626,9883.03987789154,783.5388582872438
-9709.451171875,124.52416133880615,10125.494041442871,10000.969880104065,1510.1485652109322
-9547.146484375,80.7201795578003,9971.168371200562,9890.448191642761,992.9077239634704
-9627.603515625,91.74810314178467,10049.194080352783,9957.445977210999,1152.9287840030524
-9648.7255859375,102.60123920440674,10069.080962181091,9966.479722976685,451.26619674118797
-9465.43359375,59.039644688367844,9893.971780747175,9834.932136058807,1073.0693089935921
-9609.498046875,90.1318130493164,10032.299088478088,9942.167275428772,1367.023561871669
-9611.861328125,96.86461067199707,10033.42398071289,9936.559370040894,428.93636683354185
-9415.99609375,58.63083457946777,9844.67574930191,9786.044914722443,886.3203595216916
-9807.857421875,128.1413278579712,10223.094741821289,10094.953413963318,1895.0597658870292
-9731.486328125,101.56433391571045,10151.177018165588,10049.612684249878,1012.0224013801462
-9680.212890625,93.50060558319092,10101.887968063354,10008.387362480164,760.464200900185
-9797.115234375,102.61989986896515,10217.655009388924,10115.035109519958,1011.2574865038519
-9518.798828125,41.01592206954956,9948.593352794647,9907.577430725098,963.5790401093913
-9696.2109375,99.17274045944214,10117.651067256927,10018.478326797485,2182.4066514148485
-9874.9013671875,124.70776557922363,10290.007987976074,10165.30022239685,1291.531732598348
-9692.6416015625,82.947927236557,10116.572937726974,10033.625010490417,588.5503107246622
-9832.3876953125,117.43816947937012,10249.230821609497,10131.792652130127,987.3237265110632
-9450.0126953125,-6.24787962436676,9889.220514655113,9895.46839427948,1469.0583400548921
-9985.5087890625,145.93017387390137,10397.344343185425,10251.414169311523,1407.1504029329512
-9681.41796875,78.85789775848389,10106.741914749146,10027.884016990662,540.8751393031398
-9749.8896484375,77.41200542449951,10173.80324935913,10096.391243934631,976.8214348267136
-9580.4814453125,56.71841621398926,10010.128712654114,9953.410296440125,942.7385352133437
-9834.2587890625,118.69861507415771,10251.48111152649,10132.782496452332,1265.8838916077962
-9807.732421875,84.97511196136475,10230.488560676575,10145.51344871521,774.1633675826085
-9856.990234375,104.21098899841309,10275.992804527283,10171.78181552887,1011.7457698688711
-9774.345703125,66.47307920455933,10200.241350650787,10133.768271446228,1052.5899194112835
-9928.201171875,122.15320110321045,10344.151215553284,10221.998014450073,861.0171699591233
-9761.919921875,71.24303698539734,10188.055561065674,10116.812524080276,1481.150044228052
-9767.873046875,94.1147289276123,10189.867919921875,10095.753190994263,1048.4168632329202
-9892.130859375,91.49241352081299,10313.086424827576,10221.594011306763,843.7997821174932
-9783.4423828125,73.67717242240906,10208.619683980942,10134.942511558533,1014.1388150707597
-9950.369140625,128.05752754211426,10366.211646080017,10238.154118537903,963.3983267063488
-9795.0146484375,85.79796063899994,10218.193685531616,10132.395724892616,895.3820253753178
-9888.03125,108.40502548217773,10307.077143669128,10198.67211818695,559.4790293440102
-9994.6162109375,116.48421573638916,10411.168522834778,10294.684307098389,1921.1459808250904
-9483.9755859375,-54.410077929496765,9932.327168107033,9986.73724603653,1014.3021863443099
-9736.9912109375,51.55539512634277,10166.846677780151,10115.291282653809,1277.720055407866
-10009.3662109375,128.25679302215576,10424.591284751892,10296.334491729736,885.6214232642419
-9721.447265625,58.426103591918945,10150.556886196136,10092.130782604218,574.0862523146947
-9901.126953125,107.13173127174377,10321.053355455399,10213.921624183655,976.2978591395978
-10105.8583984375,136.02159309387207,10519.056827545166,10383.035234451294,415.2179115969705
-10090.66796875,142.68733406066895,10503.404020309448,10360.71668624878,894.5165692045737
-10050.88671875,113.23785591125488,10468.234161376953,10354.996305465698,921.9563815921108
-10071.1044921875,125.75747394561768,10486.098790168762,10360.341316223145,1020.418484756439
-9964.8896484375,94.2346019744873,10386.193259239197,10291.95865726471,959.6530687722635
-9918.166015625,70.53537273406982,10342.995893478394,10272.460520744324,828.679166928459
-10074.5244140625,111.84003639221191,10492.12534236908,10380.285305976868,1007.3828935391526
-9822.208984375,56.71909475326538,10250.407447338104,10193.688352584839,1050.4243316599807
-10016.0732421875,80.90096044540405,10439.118198871613,10358.217238426208,819.6787299368635
-9886.412109375,61.29329204559326,10313.17989730835,10251.886605262756,1802.7728820552936
-9925.9521484375,61.07799434661865,10352.98044681549,10291.902452468872,443.8108405092245
-9977.751953125,60.76747465133667,10404.453319072723,10343.685844421387,1535.1050289907519
-10098.9736328125,95.17396926879883,10519.407583236694,10424.233613967896,2199.0075224215466
-10068.8310546875,105.40802145004272,10487.38109254837,10381.973071098328,466.8761451868272
-10187.2353515625,123.49850273132324,10602.196557998657,10478.698055267334,931.9436036281421
-10107.2939453125,94.5572738647461,10527.330749511719,10432.773475646973,971.7015932085427
-10111.6474609375,107.88944911956787,10530.786502838135,10422.897053718567,981.6852686610553
-9882.8642578125,48.67524266242981,10312.797884225845,10264.122641563416,1531.1965716623245
-10140.8896484375,110.29889965057373,10559.113907814026,10448.815008163452,1252.9093636635819
-10124.10546875,109.89935493469238,10542.268092155457,10432.368737220764,534.1617463461436
-10028.73828125,64.98927974700928,10454.873050689697,10389.883770942688,1443.6678165132053
-10108.328125,88.64742660522461,10530.065823554993,10441.418396949768,1026.9953808341777
-10207.4736328125,102.06953525543213,10626.01862335205,10523.949088096619,503.384804792295
-10076.36328125,58.02036190032959,10503.13767528534,10445.11731338501,981.9139223960697
-10044.0869140625,87.94754219055176,10467.085512161255,10379.137969970703,1410.3836382841585
-10139.3662109375,81.38218021392822,10561.904809951782,10480.522629737854,1317.4185514057963
-10255.111328125,119.32048416137695,10670.92031955719,10551.599835395813,475.7826510956611
-9985.25390625,73.88397216796875,10411.31208229065,10337.42811012268,479.7596535637395
-10042.009765625,44.1967716217041,10471.957705497742,10427.760933876038,2124.463290706363
-10086.48828125,72.55170440673828,10510.05484867096,10437.503144264221,998.7442312783339
-10132.4521484375,95.0245246887207,10553.517757415771,10458.49323272705,1015.0985430558715
-10143.4072265625,102.53680896759033,10563.716453552246,10461.179644584656,792.867819403017
-10101.6376953125,69.74556922912598,10526.778023719788,10457.032454490662,1584.751006319999
-10134.546875,74.94790410995483,10558.619056224823,10483.671152114868,1318.6159388495655
-10318.3017578125,120.0377368927002,10733.071493148804,10613.033756256104,1890.056450537912
-10140.5029296875,82.50810623168945,10564.178864479065,10481.670758247375,2031.029181548263
-10112.4169921875,68.55913817882538,10538.045533061028,10469.486394882202,1219.190147321192
-9717.9580078125,-40.44853496551514,10163.64489364624,10204.093428611755,942.7667492035082
-10195.16796875,62.797003507614136,10620.814967870712,10558.017964363098,1883.0782985602345
-10164.3564453125,61.0010404586792,10590.68436908722,10529.68332862854,1006.0520742506538
-10036.9853515625,48.104942083358765,10466.25273513794,10418.14779305458,2023.703185481703
-10138.1708984375,79.95933294296265,10562.164897441864,10482.205564498901,1025.3791351921213
-9896.4873046875,-12.242674112319946,10336.818447828293,10349.061121940613,1401.1314375592838
-10172.177734375,67.13178873062134,10598.528616428375,10531.396827697754,1025.923152259793
-10174.2724609375,55.324278473854065,10601.351197838783,10546.02691936493,1319.2716786490994
-10313.7041015625,92.50438976287842,10733.683087348938,10641.17869758606,2146.313237167539
-10129.1767578125,46.098896741867065,10558.102448225021,10512.003551483154,2161.446149659581
-10122.2412109375,69.84678691625595,10547.981776714325,10478.134989798069,910.4190687635892
-10389.1767578125,112.19441890716553,10805.69546508789,10693.501046180725,1847.556143613068
-10269.8564453125,70.47969043254852,10693.622895121574,10623.143204689026,1635.1610488086906
-10035.01953125,-7.921038269996643,10473.275281310081,10481.196319580078,2081.4339291747974
-10289.7958984375,84.41246724128723,10713.003346681595,10628.590879440308,437.4666465633092
-10243.4306640625,66.44432163238525,10667.7328748703,10601.288553237915,1338.8244920817344
-10094.7060546875,39.70134162902832,10525.780951499939,10486.07960987091,883.0600802300955
-10396.6162109375,115.6702470779419,10813.338871955872,10697.66862487793,1408.6121709191434
-10122.65625,9.556017398834229,10557.63496541977,10548.078948020935,1026.4443963363635
-9476.1044921875,-166.7212161719799,9944.240587413311,10110.96180358529,1094.6966799082838
-10398.3330078125,112.58103656768799,10816.029301643372,10703.448265075684,979.058205656007
-10296.162109375,81.73282778263092,10718.911003232002,10637.178175449371,1415.0972647296928
