loss,margin,positive_reward,negative_reward,deterministic_return,stochastic_return
0.0,0.0,0.0,0.0,7.978318515647776,-0.17983397519942185
9414.4833984375,14517.268481034786,1819.2026989646256,-12698.06578207016,207.70181997494205,98.24902388800672
541.2335205078125,18643.130704164505,2756.467831850052,-15886.662872314453,299.19273044765134,225.85809666487884
-876.3735961914062,21240.176020622253,3150.6205196380615,-18089.555500984192,352.0640365192869,247.8604771136423
-1671.186279296875,23585.093106746674,3408.6150641441345,-20176.47804260254,369.9325679277155,275.3825335166812
-2132.47119140625,25245.58117699623,3580.008070230484,-21665.573106765747,505.0969391649466,249.06812410765548
-2531.486083984375,26618.782304525375,3711.555671453476,-22907.2266330719,222.8272918651679,252.7984182749422
-2828.017578125,27750.765792131424,3815.4436752796173,-23935.322116851807,561.7709119358116,331.36369958318033
-3020.954833984375,28784.932240486145,3906.8773736953735,-24878.05486679077,528.913995145105,537.8381640303948
-3231.282470703125,29833.070737838745,3983.4494457244873,-25849.621292114258,208.4316949672756,231.7331861664547
-3374.923583984375,30755.42369556427,4053.1509675979614,-26702.27272796631,1006.1388600298205,691.9486081977612
-3530.765380859375,31532.746385335922,4125.25142455101,-27407.494960784912,411.2422969047155,278.7163083413497
-3661.635986328125,32455.538407564163,4190.159686326981,-28265.378721237183,364.6724963597606,299.4849608110787
-3770.252685546875,32941.437705755234,4243.247579336166,-28698.190126419067,1322.7669898802756,305.1667700062455
-3898.899658203125,34081.52970647812,4307.752488613129,-29773.77721786499,607.3813934859816,386.5738961818976
-3951.968994140625,34647.127871990204,4340.484662532806,-30306.643209457397,420.69391587660823,397.20460148011307
-4046.750732421875,35128.74259877205,4383.789000749588,-30744.95359802246,539.4264750648251,334.6319482548551
-4059.364013671875,35773.94920992851,4400.589756727219,-31373.359453201294,1834.5262662459354,349.44161987001416
-4184.06005859375,36667.4960000515,4474.50075507164,-32192.99524497986,866.0485856621501,409.0007611408226
-4238.134765625,37401.6853890419,4504.790907382965,-32896.894481658936,845.7280770298114,346.4446895826448
-4320.2861328125,38114.78077459335,4559.5582575798035,-33555.22251701355,1696.141543345892,409.12073515121426
-4354.5810546875,38485.80927467346,4573.421970367432,-33912.38730430603,2077.376694080956,435.8488815665596
-4411.240234375,39229.352905750275,4619.130943775177,-34610.2219619751,3222.652224775901,1140.5854244798159
-4448.490234375,39722.53988647461,4647.00133895874,-35075.53854751587,3045.424826913626,324.31062525447703
-4472.8818359375,39963.28117656708,4662.508101463318,-35300.77307510376,2956.5729735545624,993.5422828193584
-4528.123046875,40677.61453485489,4708.558756351471,-35969.05577850342,4108.777328805695,2184.2625459025207
-4560.15625,41119.8327794075,4729.508091449738,-36390.324687957764,1317.3169079398635,525.8464485713498
-4585.32177734375,41473.746020793915,4750.554152965546,-36723.19186782837,2961.7950167252593,664.0071384317133
-4655.76025390625,42427.766230106354,4802.246994495392,-37625.51923561096,3947.593384463636,2531.5541049397784
-4678.22509765625,42822.08759403229,4819.819911003113,-38002.267683029175,5042.03415972236,1463.1268068886266
-4697.10205078125,43134.65280389786,4835.158112049103,-38299.494691848755,4736.418958540137,462.7506640052153
-4693.896484375,43150.044609069824,4837.250566482544,-38312.79404258728,2362.31245564018,936.7959987671056
-4756.26513671875,43938.76921749115,4877.832655906677,-39060.93656158447,4811.696403413431,1053.1505992821872
-4780.2021484375,44226.04230308533,4898.373090744019,-39327.66921234131,5151.60098143909,653.6083610233112
-4790.564453125,44735.89821100235,4913.10169839859,-39822.79651260376,4923.998059645223,1149.1538647180216
-4864.68994140625,46062.16302061081,4962.487014293671,-41099.67600631714,4938.252682612391,901.5989363648472
-4817.2353515625,44791.21318721771,4931.906371116638,-39859.306816101074,4416.899811641122,3243.700910929955
-4889.9833984375,46345.34216213226,4990.3110609054565,-41355.03110122681,4510.672928035863,2975.7989399321305
-4881.8916015625,46335.45745229721,4995.226724147797,-41340.230728149414,3452.727916884932,606.3644061697049
-4914.07958984375,46745.800413131714,5021.504083633423,-41724.29632949829,3963.1369461791264,1722.8103192275273
-4985.56201171875,47834.99296998978,5067.647961139679,-42767.3450088501,5061.14166360347,1519.5460437534314
-4940.6826171875,47142.0053396225,5037.0957708358765,-42104.90956878662,5048.3609556824795,2200.6501542941464
-4998.32470703125,48205.338984012604,5080.721601963043,-43124.61738204956,3950.1336932873287,1123.0892097472301
-4962.1103515625,47596.4995598793,5060.639872074127,-42535.859687805176,3573.8039241198117,3022.372865919148
-5018.0244140625,48516.71927022934,5102.837007045746,-43413.882263183594,4812.426098310927,3447.594028994805
-5054.60498046875,49283.954627513885,5125.203345775604,-44158.75128173828,4648.20374471814,3112.0600377802016
-5052.5263671875,49073.49868297577,5128.840430259705,-43944.658252716064,4925.4788228024645,3334.129862450222
-5077.98486328125,49684.81327724457,5153.871825218201,-44530.94145202637,4625.571227780168,2399.148450243404
-5092.84814453125,50134.54852628708,5168.229617595673,-44966.318908691406,5035.988915735322,2885.0217197339484
-5111.18896484375,50527.14029121399,5178.611970901489,-45348.5283203125,4998.72394901353,4691.213658688304
-5081.58642578125,49725.9920091629,5174.563912391663,-44551.42809677124,4766.987558455326,1742.322037027591
-5120.28662109375,50460.52399349213,5197.729105949402,-45262.794887542725,4807.557404393498,2335.692188931992
-5163.77197265625,51571.7918176651,5224.865830421448,-46346.92598724365,4946.815099344223,1657.5631576901571
-5162.37109375,51607.63562583923,5230.542570114136,-46377.0930557251,4768.1395467027205,3490.329193176143
-5174.576171875,51954.48822307587,5245.997008323669,-46708.4912147522,4046.6860975831487,1034.2721235517067
-5188.408203125,51779.05753469467,5253.54877614975,-46525.50875854492,4426.588502459328,2844.4022298443474
-5190.38623046875,52159.98876142502,5257.831290721893,-46902.157470703125,4963.888718864958,2833.3919234751343
-5241.443359375,53166.51744747162,5300.441840171814,-47866.075607299805,4253.291215395613,3460.9953502452836
-5171.93310546875,51879.897809028625,5251.833386421204,-46628.06442260742,5029.59932586047,2657.9090668760937
-5255.33056640625,53408.145849227905,5312.0997676849365,-48096.04608154297,4915.549404546165,3890.311326449344
-5274.70947265625,53756.708720207214,5330.46733379364,-48426.241386413574,5012.868971226222,3724.8280592471624
-5162.49658203125,52062.42762517929,5250.993722438812,-46811.43390274048,4216.430088124462,4085.951014756744
-5353.39599609375,55639.187185287476,5391.997117996216,-50247.19006729126,4903.314910099087,2786.5330592216897
-5295.1982421875,54541.092920303345,5351.187456130981,-49189.90546417236,4706.8087369656705,3375.3293513135286
-5282.64990234375,53855.67541217804,5345.009575843811,-48510.66583633423,4972.3227121599275,3361.8864859457317
-5334.35498046875,55215.606068611145,5384.539452552795,-49831.06661605835,4934.758886930697,2766.2753269293653
-5320.1611328125,55190.95474720001,5383.089070320129,-49807.86567687988,4906.0151011510225,3520.6088910240856
-5326.8076171875,54859.51006650925,5386.648467540741,-49472.861598968506,3649.8039749658033,1417.0257115859256
-5386.04345703125,56675.75191926956,5431.0330510139465,-51244.718868255615,5010.102108035802,2330.102717023658
-5313.697265625,54929.99187421799,5383.65357542038,-49546.33829879761,4881.623754815277,3570.494534271956
-5400.498046875,56919.46515750885,5441.4722032547,-51477.99295425415,4566.313102625483,3029.5419729786363
-5419.2412109375,57425.29901123047,5463.835792541504,-51961.463218688965,4923.06516921371,4850.888008937031
-5327.11962890625,55568.62855672836,5393.144723415375,-50175.48383331299,4949.244672943959,4521.758834321044
-5448.93017578125,58146.442105293274,5487.020977973938,-52659.421127319336,4654.479697220709,3772.942936233035
-5410.96435546875,57053.33519077301,5461.137650489807,-51592.1975402832,4924.273283433542,4119.612795725508
-5421.79150390625,57652.08003950119,5479.673797130585,-52172.406242370605,4573.7273863140745,4673.112747682924
-5455.640625,58473.74932003021,5496.058672904968,-52977.690647125244,4880.030320120973,4294.5201653364
-5463.6787109375,58363.11015558243,5511.605612277985,-52851.50454330444,4693.216832008951,3295.322900157659
-5416.9921875,57483.81629896164,5477.313624858856,-52006.50267410278,4900.620731426807,4950.539053493557
-5535.83984375,60572.43421173096,5570.12686920166,-55002.3073425293,4872.7371199752615,4111.0193684477
-5437.072265625,57980.75101518631,5492.637199878693,-52488.11381530762,4967.54051529066,3955.9934123563567
-5522.56396484375,59921.57220888138,5561.435410022736,-54360.13679885864,4485.228612004745,4677.794744584927
-5375.009765625,57240.43467473984,5468.273053646088,-51772.16162109375,4924.236908733383,3174.88628774438
-5564.5087890625,61275.595566272736,5595.725121021271,-55679.870445251465,4929.349402010173,4536.38235472768
-5510.5185546875,59580.158720970154,5561.188471794128,-54018.970249176025,4890.9850219396485,3991.3193146772273
-5525.66552734375,60587.326961517334,5572.995983123779,-55014.330978393555,4490.943779226936,3162.442973426565
-5513.0205078125,60021.44681882858,5559.163138866425,-54462.28367996216,4413.880571458389,2269.3541795190595
-5552.6630859375,61029.85690355301,5600.377789020538,-55429.47911453247,3492.918689740755,3766.0232986017895
-5528.1376953125,60457.87550354004,5571.836204528809,-54886.03929901123,4484.546483321146,3868.1146686581124
-5559.212890625,61096.888620853424,5603.897978305817,-55492.99064254761,4969.943390476079,4439.882349598255
-5533.32421875,60655.80539560318,5587.512289524078,-55068.2931060791,4988.71200573284,4911.063823160459
-5542.9208984375,60663.52922010422,5591.460448741913,-55072.068771362305,4513.131227146039,4066.4219024479185
-5636.62158203125,63166.56034088135,5669.553256988525,-57497.00708389282,5017.389511466404,3820.895855263088
-5522.50634765625,60250.34311771393,5587.91006565094,-54662.43305206299,4971.453878820545,3136.3324009929433
-5596.82275390625,62186.48115968704,5638.5785183906555,-56547.90264129639,4966.169486466608,4757.53173411762
-5590.18701171875,62019.65279006958,5641.673652648926,-56377.979137420654,4965.104733503519,2720.2777203656824
-5637.03125,62730.69988965988,5670.424815654755,-57060.27507400513,4782.046970079926,4751.677187365097
-5667.2041015625,64034.2185087204,5699.536486625671,-58334.68202209473,4993.17698521593,4082.745756243506
-5337.60009765625,57907.98952913284,5512.484501361847,-52395.505027770996,4768.172675560859,4476.179735188144
-5673.13623046875,64069.05155277252,5704.028893470764,-58365.02265930176,4979.065063547922,4086.879909187804
-5679.59716796875,64615.99913549423,5710.1964774131775,-58905.802658081055,4905.013870342582,4180.112319404253
-5636.47607421875,63408.54806995392,5684.124474525452,-57724.42359542847,4933.396333469307,4383.654100725765
-5606.1943359375,62562.184245586395,5661.4982142448425,-56900.68603134155,4949.357194363694,4935.062899475672
-5718.65283203125,65806.37964439392,5749.85378074646,-60056.52586364746,4917.926031493953,3242.787939451341
-5665.34326171875,63962.44000053406,5707.044328689575,-58255.39567184448,4464.56650234818,3794.9295353959037
-5620.9267578125,62528.817876815796,5674.108461380005,-56854.70941543579,4565.103927690735,2288.9161122296673
-5787.9873046875,67903.57558202744,5809.759732723236,-62093.8158493042,4936.563709086489,4387.7416197347175
-5467.95703125,60397.12866163254,5582.078174114227,-54815.05048751831,4389.032390643406,4082.166182619237
-5755.53173828125,66830.93709468842,5784.144000053406,-61046.79309463501,3763.5526789085866,4641.12886032642
-5753.1005859375,67440.29920005798,5794.695444107056,-61645.60375595093,4934.473851002289,3932.120013828342
-5661.6044921875,64002.89610481262,5705.093507766724,-58297.8025970459,4960.6396804187825,3989.1857658931594
-5686.01953125,64777.20120239258,5730.41287612915,-59046.78832626343,5006.772731440253,4232.8169114203165
-5663.2099609375,64778.47868061066,5748.563481330872,-59029.915199279785,4934.542012278117,3138.9210478510677
-5736.74658203125,66328.68713188171,5768.017587661743,-60560.66954421997,4939.787493603301,4794.329355271755
-5742.30615234375,66146.30343770981,5781.831719875336,-60364.47171783447,4962.582142021374,4916.23109797424
-5656.84814453125,65125.367758750916,5732.916781425476,-59392.45097732544,4909.440006490591,4878.050644197886
-5815.0361328125,68704.73885726929,5839.988842010498,-62864.75001525879,4722.040655286079,4095.1051221246453
-5767.50146484375,67913.62154483795,5803.653214454651,-62109.9683303833,4916.409893767531,4683.061140739238
-5718.08349609375,66308.83060503006,5772.6798214912415,-60536.15078353882,4986.6704513343375,2896.062798289674
-5834.13427734375,69967.89297151566,5858.438972949982,-64109.453998565674,4951.965816222823,4176.793433116124
-5570.0322265625,63280.465876579285,5664.574843406677,-57615.89103317261,4917.633566076955,3725.2480941885974
-5856.70703125,69666.76969909668,5873.276081085205,-63793.493618011475,4886.558231934832,3318.323007581979
-5738.8310546875,66521.36608076096,5787.5260310173035,-60733.84004974365,5028.252404789162,4974.906473570929
-5741.083984375,67923.71909284592,5819.587035655975,-62104.13205718994,4879.458893836262,4692.223787443012
-5826.5771484375,69113.86572265625,5860.924671173096,-63252.941051483154,4209.692230594089,4061.2593182668097
-5771.94482421875,67365.91261196136,5821.423880577087,-61544.48873138428,4911.66380366836,4678.524635719025
-5731.3017578125,66802.67203569412,5796.467529773712,-61006.20450592041,4218.454037138164,4052.547539091026
-5779.3583984375,68236.00978803635,5832.043479442596,-62403.96630859375,4212.363191370283,4210.522545661584
-5864.34033203125,70286.22120475769,5895.071599960327,-64391.14960479736,4932.468321075037,4888.336175360374
-5775.2587890625,68910.0855512619,5829.285269737244,-63080.80028152466,4922.590163157007,3585.5919043695603
-5628.23291015625,64413.73196935654,5718.263654232025,-58695.46831512451,4530.1878472243725,4457.980475670957
-5870.83251953125,70099.84189844131,5901.9506096839905,-64197.891288757324,4996.4416098801385,4937.6681550270205
-5900.03857421875,71225.19625377655,5927.513171195984,-65297.68308258057,4913.426405733464,4077.6177181817666
-5865.22607421875,70060.36899805069,5902.169966220856,-64158.199031829834,4891.498611234563,4778.572239235875
-5847.9375,69851.80576229095,5889.965708732605,-63961.84005355835,4952.269105661204,4391.034659907752
-5662.4990234375,65163.43783903122,5755.57316160202,-59407.8646774292,4960.864927544647,4890.865106382342
-5827.30908203125,70557.29902553558,5901.200083732605,-64656.09894180298,4983.0822530723335,4329.741785048029
-5803.31640625,68973.41223669052,5857.503106594086,-63115.909130096436,4164.1455636211995,4500.636490199826
-5950.564453125,72885.06271362305,5974.504917144775,-66910.55779647827,4955.557632715871,4891.287598299083
-5710.896484375,67192.59465074539,5811.796555042267,-61380.798095703125,5001.721806537471,4891.17963061506
-5996.98095703125,74792.23070240021,6011.453560829163,-68780.77714157104,4545.445846466102,3100.5384698106545
-5915.18701171875,72383.31529951096,5951.065085887909,-66432.25021362305,4938.688517585859,4900.21031797103
-5702.0576171875,67108.02883768082,5804.717871189117,-61303.3109664917,4522.7405005276805,4271.140885507887
-5966.24365234375,74094.89491224289,5993.7871470451355,-68101.10776519775,4478.397244740771,2259.7970291075644
-5796.33642578125,67987.85119152069,5849.136027336121,-62138.71516418457,4927.572038831644,2836.046515431609
-6003.1962890625,74891.64491128922,6026.545217990875,-68865.09969329834,4934.196420863845,4405.244080942649
-5788.41552734375,69274.98775100708,5857.66707611084,-63417.32067489624,4706.732484590657,4555.257422045992
-5921.63330078125,72821.53463840485,5963.0245752334595,-66858.51006317139,4812.182539956453,4154.58602608736
-5960.9921875,73374.15845680237,5993.625333786011,-67380.53312301636,4937.490046854128,4451.97962499102
-5811.19482421875,72220.02284908295,5919.44078540802,-66300.58206367493,4950.024437326785,2743.2619755489673
-5920.8203125,72420.91636562347,5949.9815855026245,-66470.93478012085,4909.27028479593,2513.8432424320126
-5980.7705078125,75737.91463041306,6025.134654521942,-69712.77997589111,4040.3806882682047,3676.290170780891
-5813.625,69411.29183959961,5868.87610244751,-63542.4157371521,5021.547320991388,4049.60244034911
-5964.806640625,74751.42401647568,6009.787301540375,-68741.6367149353,4963.425992298923,3718.8231084838144
-5974.4912109375,74744.63347673416,6011.890320301056,-68732.7431564331,5000.953047903857,3459.9231846997727
-5763.16650390625,70170.85137701035,5870.7987151145935,-64300.05266189575,4591.691944142997,4574.5430641851135
-6014.7216796875,74882.31850337982,6040.3032484054565,-68842.01525497437,4875.0867834167675,4123.196409282716
-5892.6279296875,72018.28023815155,5941.330534934998,-66076.94970321655,4867.489838223827,3833.13944216079
-5943.98486328125,74010.06506252289,5990.306109428406,-68019.75895309448,4510.128803471783,3632.1461364458796
-6000.94921875,75132.32315969467,6040.482991695404,-69091.84016799927,4917.379052168702,4683.11658648
-5969.65380859375,75271.05369853973,6019.694918632507,-69251.35877990723,4150.7589051515315,1825.3688067043215
-5879.33447265625,70791.80874204636,5933.921317577362,-64857.887424468994,3553.944654631373,3791.5093739989034
-6070.75537109375,78107.17788219452,6094.819334983826,-72012.3585472107,4946.384433109819,4888.70470530238
-5878.326171875,72196.10155010223,5945.265299797058,-66250.83625030518,5003.908493785971,3661.153364145869
-6013.92431640625,75939.25060462952,6056.294725418091,-69882.95587921143,4908.526872142936,4176.504375981367
-5921.88720703125,74353.33511686325,5999.104640483856,-68354.2304763794,4129.683513457832,2502.9743314773887
-5947.78466796875,73989.36912250519,5998.139290809631,-67991.22983169556,4945.409954389373,4904.028164601866
-6009.88525390625,77261.301715374,6059.776809215546,-71201.52490615845,4969.20198764741,4444.500128733887
-6142.86376953125,81409.88322114944,6162.608601093292,-75247.27462005615,4951.964076228729,4689.688552143639
-5892.6513671875,72424.0845155716,5958.443737983704,-66465.64077758789,4948.076093304429,4864.278828294997
-5878.79248046875,73868.70703411102,5969.838496208191,-67898.86853790283,4917.84079543525,3675.2951859028544
-5886.7314453125,71905.79847049713,5943.509274482727,-65962.2891960144,4912.1940790135095,4771.9839546054545
-6095.25341796875,79320.79744386673,6135.5896191596985,-73185.20782470703,4918.895657355055,3426.660348332653
-6089.9462890625,79023.47857809067,6114.051961421967,-72909.4266166687,4917.34560707659,3374.5919534257155
-5901.7724609375,72533.66820001602,5964.697390079498,-66568.97080993652,4509.281306100796,4540.259453275091
-6121.17919921875,80149.55887460709,6144.03679895401,-74005.52207565308,4434.603092782138,4934.4319340243455
-5798.22998046875,70303.68406486511,5901.490064620972,-64402.19400024414,4960.012348431911,4431.1621359370665
-6030.125,77513.93208789825,6079.727005958557,-71434.2050819397,5001.28870472471,4443.582674688517
-5979.5888671875,75071.21696519852,6033.986954212189,-69037.23001098633,4931.396958900898,4889.404797663968
-6107.40771484375,79489.71381092072,6137.8364725112915,-73351.87733840942,4369.859563227186,4859.129665284883
-6009.78369140625,76723.20036029816,6065.780850410461,-70657.4195098877,4940.907163726489,4947.34087068651
-5818.8876953125,73065.5557975769,5938.500438690186,-67127.05535888672,4997.06017722616,3756.439482012555
-6164.953125,81379.2277059555,6176.483733177185,-75202.74397277832,4916.8267588985855,4879.472092654428
-6184.25732421875,83122.50415802002,6205.0938720703125,-76917.4102859497,4913.7929269446395,4906.280326802103
-5796.947265625,71522.05815792084,5911.980902671814,-65610.07725524902,4463.782677401463,4573.960849930535
-5986.9619140625,78095.93429470062,6073.348696708679,-72022.58559799194,4922.055878489724,2044.2180034905323
-6164.53759765625,80483.34184026718,6182.495294094086,-74300.8465461731,4937.238588532187,4658.8417192341385
-6108.77783203125,80417.93810462952,6153.67918586731,-74264.2589187622,4497.3662967837045,4772.2407280465395
-5865.2353515625,72828.69533967972,5961.136719226837,-66867.55862045288,4921.806980441809,4153.927591414396
-6170.7138671875,82172.00596284866,6192.306354999542,-75979.69960784912,4947.048684212333,4231.197251945044
-5802.6279296875,74493.36725950241,5954.800776958466,-68538.56648254395,4445.510921241737,2883.6491076784805
-6011.5244140625,76379.14382886887,6047.21671628952,-70331.92711257935,4476.862805238288,4444.364707835113
-6152.2919921875,81644.42656564713,6177.445402622223,-75466.9811630249,4952.1881592796035,3869.2273424606087
-5803.58349609375,71495.77465724945,5919.232466697693,-65576.54219055176,4933.395039919507,4014.6784421296097
-6226.6611328125,83906.21708583832,6243.273783683777,-77662.94330215454,4992.27141728284,4455.035638746762
-6071.71875,79012.313601017,6128.858503818512,-72883.45509719849,4096.592450738182,4789.7996272135515
-6153.4873046875,82584.03580379486,6200.905268669128,-76383.13053512573,4904.484234577356,4903.939380350949
-6048.92626953125,80331.00505685806,6119.078314304352,-74211.92674255371,4955.355742623506,3185.3687798494734
-5876.90966796875,72494.9711265564,5955.156234741211,-66539.81489181519,4475.692515781883,2870.4938880336676
-6262.001953125,85284.79643440247,6271.944833755493,-79012.85160064697,4979.494308136386,4918.884729438694
-6328.60595703125,89739.86110830307,6338.6182951927185,-83401.24281311035,4184.3311333391175,4659.831125003502
-5690.361328125,70253.19118642807,5836.507125377655,-64416.684061050415,4233.393380680389,4726.655501324842
-6079.68798828125,80600.07724380493,6138.608684539795,-74461.46855926514,4927.916828728765,3586.129713666537
-6189.16796875,84295.88294315338,6220.195076942444,-78075.68786621094,4954.046431496614,4106.130032421046
-6023.0712890625,78187.91612434387,6087.957929611206,-72099.95819473267,4307.461381583616,4752.454921207197
-5819.54833984375,72779.25220537186,5936.0717968940735,-66843.18040847778,4936.417584474742,3795.170889913915
-6156.3515625,81137.47116708755,6187.1602692604065,-74950.31089782715,4950.3963416002125,4036.200206609637
-6041.98583984375,79769.33769607544,6111.039905548096,-73658.29779052734,4952.241628915888,2633.133532156652
-6041.478515625,78290.14349365234,6103.566570281982,-72186.57692337036,4951.17728835406,4746.273557183685
-5938.68212890625,77787.92277383804,6054.559858798981,-71733.36291503906,4369.169318615374,4495.91563311057
-6290.11181640625,88028.73706531525,6306.637349128723,-81722.09971618652,4927.382112962266,4571.313707307483
-6017.80029296875,78821.06995868683,6102.624138832092,-72718.44581985474,3596.8877143426025,3536.778048053173
-5986.4052734375,75935.02933120728,6051.917873382568,-69883.1114578247,4961.401619151782,4925.700877860599
-5994.27880859375,77972.02694034576,6078.763085365295,-71893.26385498047,4331.6778370649245,3537.2908700563157
-6167.68994140625,83991.24430513382,6213.368813037872,-77777.87549209595,4931.049939914342,3049.6936251600077
-6142.8642578125,80468.6508140564,6172.727890014648,-74295.92292404175,4920.729403789704,4930.245498358278
-6179.1708984375,83385.54652881622,6230.849621772766,-77154.69690704346,4883.666186753574,2275.1113801558877
-6217.43896484375,84941.99689912796,6254.5025334358215,-78687.49436569214,4375.676152060107,4288.716805665248
-5958.30712890625,76725.22563028336,6057.325674533844,-70667.89995574951,3722.725564237854,2206.6863955028357
-6213.75439453125,83590.37428617477,6241.118361949921,-77349.25592422485,4970.491795773751,4421.3913486904075
-6264.107421875,87295.83282518387,6302.091259479523,-80993.74156570435,4988.826124302046,4878.741495756791
-5928.28564453125,75746.00710296631,6024.955572128296,-69721.05153083801,4960.5841796619925,4909.166637226707
-6066.72119140625,80387.94422912598,6132.583183288574,-74255.3610458374,5028.316086726721,4940.831836385316
-6391.01025390625,92020.13201379776,6401.807337284088,-85618.32467651367,4950.528586077944,4451.235662279547
-5821.2138671875,73475.21299314499,5955.609031200409,-67519.60396194458,4961.885707573722,4897.286087237017
-6268.30810546875,86437.96427059174,6301.78805065155,-80136.17621994019,4895.60968709131,4821.126121511877
-6074.6328125,80879.35189342499,6144.125475883484,-74735.2264175415,4207.914742645791,4893.556955697524
-6298.12255859375,89100.60886669159,6326.343691825867,-82774.26517486572,4029.723173847503,4234.22390715123
-5924.24609375,74667.82056188583,6017.136239528656,-68650.68432235718,3655.259729966224,4060.856552832386
-5931.46484375,75570.05282783508,6034.984178543091,-69535.06864929199,4995.304801202171,3386.589809866895
-6286.46142578125,87391.5814242363,6306.328158855438,-81085.25326538086,4249.80466923536,4859.448793608238
-6196.48583984375,84351.01905012131,6246.422965526581,-78104.59608459473,4984.285964651814,4498.2291545514645
-6058.494140625,81177.39067649841,6138.423559188843,-75038.96711730957,4932.143018281678,4920.2462235813955
-6072.11376953125,82089.93070268631,6150.978085041046,-75938.95261764526,4970.555959550432,4873.2359273279
-6314.70556640625,87842.92804145813,6334.392274856567,-81508.53576660156,4961.552595996942,4868.6874565828
-6178.02587890625,88673.00411367416,6270.570935726166,-82402.433177948,4408.828685980581,2458.994544155083
-6110.78955078125,80109.54784727097,6160.352534770966,-73949.1953125,4927.036624342444,4012.424599835169
-6132.5771484375,84395.97065067291,6215.622803688049,-78180.34784698486,4966.290682526534,4895.661817553681
-6329.646484375,89627.92409658432,6344.279618740082,-83283.64447784424,4957.17736056922,4438.7894850235825
-5855.201171875,74275.34588956833,5985.824855327606,-68289.52103424072,3337.276165407028,3453.5396697888414
-6078.20703125,81676.85900211334,6174.812062263489,-75502.04693984985,3500.237574784408,4145.821025384541
-6372.16064453125,89796.14004182816,6382.611668109894,-83413.52837371826,4952.663110703581,4045.3720748964392
-6057.4677734375,81492.3938202858,6136.599188327789,-75355.79463195801,4975.695870086442,4045.4696292707895
-6153.57763671875,81889.52108240128,6208.684031009674,-75680.8370513916,4952.498103756338,4944.749852599838
-6343.92138671875,91258.88713788986,6378.761004924774,-84880.12613296509,4907.245188954262,3972.029679692371
-6211.0146484375,86013.16103935242,6263.313272476196,-79749.84776687622,3148.1314066812474,1111.9542896989763
-6168.97509765625,82589.03687763214,6220.212738990784,-76368.82413864136,4204.182979897657,4865.438079708019
-5978.17236328125,81845.7424583435,6097.729166030884,-75748.01329231262,4623.490974649647,4494.928863698316
-6120.56640625,80070.21826410294,6168.079061985016,-73902.13920211792,4820.362046813292,3984.543654295356
-6167.349609375,85689.34557008743,6229.74772310257,-79459.59784698486,4948.465176392562,4358.536540664505
-6392.01416015625,92515.69486427307,6414.1934604644775,-86101.5014038086,4952.22487232321,4692.669859158078
-6040.7236328125,81588.32790374756,6132.905143737793,-75455.42276000977,4979.359555077304,4718.33994632447
-6204.4580078125,84319.79304122925,6252.017444610596,-78067.77559661865,4247.0510720546745,4007.560793123961
-5974.66259765625,77884.21339082718,6079.170135974884,-71805.0432548523,4963.415584843763,4105.492623438984
-6389.8583984375,91458.82171487808,6406.496168613434,-85052.32554626465,4970.322345769067,3969.8216692130127
-6150.93310546875,83691.12173938751,6221.619736671448,-77469.50200271606,4954.465618544511,3546.643936179542
-6150.37353515625,91145.22074532509,6283.520260095596,-84861.70048522949,3960.0574038387704,1948.3671075038528
-6134.37939453125,80746.47582864761,6173.387598514557,-74573.08823013306,4210.484607311208,4032.8955299174004
-6105.21435546875,81012.70263338089,6180.00072145462,-74832.70191192627,4987.966446667847,4910.6191898028665
-6321.37451171875,88908.9545340538,6355.868588924408,-82553.0859451294,4891.708509561137,4189.583055571837
-6165.07470703125,89484.35761976242,6283.9577651023865,-83200.39985466003,3423.7997524398916,3312.5247543635132
-6156.9970703125,82014.79637622833,6198.068448066711,-75816.72792816162,4048.8306183648797,4856.515523180428
-6201.80322265625,86475.58387899399,6272.442395687103,-80203.14148330688,4931.1023722185255,2766.335905374822
-6297.67626953125,91272.9606590271,6350.570552825928,-84922.39010620117,4948.5440676229155,1921.3340497628535
-6295.03076171875,87791.13047075272,6327.770897388458,-81463.35957336426,4953.932309735612,3413.952691446575
-5879.015625,75557.36270093918,6010.977996349335,-69546.38470458984,4378.129325827058,4176.41008893259
-6352.3720703125,91779.7825088501,6394.651084899902,-85385.1314239502,5014.9411004930025,3023.874518598935
-6180.4599609375,88130.837495327,6276.819917201996,-81854.017578125,4949.220370309603,3257.60126988622
-6293.01220703125,88337.79299354553,6331.35011100769,-82006.44288253784,5002.04350633221,4855.809597805421
-6274.4375,89294.13419818878,6325.842839241028,-82968.29135894775,4868.872777495375,4618.176031899863
-6285.4453125,89670.25140476227,6335.135453224182,-83335.11595153809,4946.797779471947,4913.006428497019
-6004.57763671875,82903.96229457855,6133.348147392273,-76770.61414718628,4336.166833908996,4478.921328466358
-6447.14208984375,93186.74915742874,6455.942577838898,-86730.80657958984,4591.407381391207,4779.404989105666
-6092.91552734375,83707.11740541458,6187.0397000312805,-77520.0777053833,4931.771442496199,4888.307099611824
-6188.58935546875,87718.96532917023,6287.278656959534,-81431.6866722107,3262.8423280879333,3970.0019382172177
-6332.509765625,92721.13747692108,6392.963133811951,-86328.17434310913,4980.055560435602,3917.205009332049
-6197.15576171875,85655.52790021896,6276.641372203827,-79378.88652801514,4894.979049549877,4867.7533022015505
-6170.28173828125,87113.99728536606,6247.9422698020935,-80866.05501556396,4941.626571559884,3729.0774820794395
-6487.79931640625,96159.88759183884,6497.154094219208,-89662.73349761963,4942.903724321423,4893.142169141127
-6089.37548828125,83247.06946134567,6191.914966106415,-77055.15449523926,4952.625124666744,4645.480232360944
-6359.02197265625,95092.53568077087,6413.767450332642,-88678.76823043823,4958.837558520313,2965.0875476097112
-6356.73876953125,91636.12753868103,6386.497087478638,-85249.63045120239,4204.281237507756,4911.155375650778
-6158.115234375,85016.75080871582,6228.333786010742,-78788.41702270508,4936.1941230107095,4925.315688112055
-6064.83837890625,81459.89240646362,6177.336742401123,-75282.5556640625,4945.92828992836,4930.2543676873365
-6319.31982421875,94906.34208536148,6401.09006357193,-88505.25202178955,1361.1367709893716,3673.4141879538047
-6204.8662109375,86934.74274349213,6281.50473690033,-80653.2380065918,2389.8634656208224,1034.3640839069071
-6286.1982421875,88531.60704135895,6326.1429834365845,-82205.46405792236,4946.535577934223,4883.716532317269
-6155.3564453125,85475.38132286072,6245.364004135132,-79230.01731872559,2659.4498914288533,3124.1558614843425
-6099.37841796875,81254.88837194443,6176.254888057709,-75078.63348388672,4955.0448292944575,3007.1744774152467
-6457.1455078125,99164.43420743942,6512.950576305389,-92651.48363113403,3735.2253208689845,2192.7381575427803
-6348.40087890625,91749.14364004135,6383.568757534027,-85365.57488250732,4254.867075094218,4094.2272571051085
-5967.61474609375,79831.7419500351,6095.382788658142,-73736.35916137695,4786.616981046761,2925.0972856907474
-6442.8251953125,94539.22699260712,6456.651354789734,-88082.57563781738,4931.502209186131,3780.934826563098
-6344.87353515625,93058.37629461288,6409.079385280609,-86649.29690933228,4931.384137529072,1923.8611498428368
-6232.1083984375,92199.12131738663,6335.58261346817,-85863.53870391846,4977.261220616517,4844.008293961946
-6437.91015625,95091.07309007645,6455.915260791779,-88635.15782928467,4278.337505238396,4454.0570002533705
-6116.2587890625,85337.05338525772,6210.093740940094,-79126.95964431763,4972.29702053749,4653.162869768087
-6390.98193359375,95612.18342494965,6438.199599266052,-89173.9838256836,4916.588606303132,3779.524505963207
-6074.939453125,82983.47348690033,6184.760779380798,-76798.71270751953,4961.155340176495,4905.220645193249
-6568.14794921875,101291.352435112,6573.07687664032,-94718.27555847168,4037.5888762292466,4549.837928911058
-6364.4208984375,96139.29845428467,6419.054904937744,-89720.24354934692,4972.830666028751,4631.010043569634
-6213.43603515625,94862.59425592422,6333.295771121979,-88529.29848480225,4186.013975225152,2346.4718604722007
-6350.92578125,90991.69144296646,6380.294138431549,-84611.39730453491,4270.144640835829,4919.783723895307
-6154.55078125,87447.6355433464,6256.045680522919,-81191.58986282349,4049.4341981837815,4404.840320663172
-6331.8525390625,94301.39194250107,6397.218274593353,-87904.17366790771,4915.284692918683,4906.25343312207
-6008.802734375,79473.56519603729,6115.34307384491,-73358.22212219238,4899.151248001306,3121.316545525074
-6473.755859375,97486.6313419342,6494.296083450317,-90992.33525848389,4976.445398701858,4927.605583632534
-6052.740234375,82295.35368585587,6161.233519077301,-76134.12016677856,4961.486558615611,4941.4400263666785
-6335.626953125,93920.86614227295,6400.838573455811,-87520.02756881714,4990.733688785416,4899.160513349928
-6438.1689453125,96532.90133905411,6471.931437015533,-90060.96990203857,4203.1748040596085,4009.121025670337
-6127.41845703125,86264.73236083984,6241.513938903809,-80023.21842193604,4984.644811359128,4872.379790403987
-6604.83740234375,104470.36712360382,6612.036908149719,-97858.3302154541,4953.966954441014,4855.8112990034715
-6017.02685546875,81115.31644582748,6142.723824977875,-74972.59262084961,4193.791305750069,4927.448611606494
-6302.724609375,91166.95110321045,6355.942478179932,-84811.00862503052,4960.919473293761,3876.978205616311
-6088.40576171875,86084.53635978699,6206.38335609436,-79878.15300369263,4967.507392177814,4036.6671046859533
-6543.29052734375,101952.56887054443,6563.9249267578125,-95388.64394378662,4516.255980932979,4915.274527497839
-6099.42724609375,90163.06907463074,6240.0226402282715,-83923.04643440247,4182.130759962578,4188.385174454377
-6265.1416015625,89506.77595806122,6335.568434715271,-83171.20752334595,4953.5789898673875,4934.4310750204595
-6596.08154296875,105258.52945518494,6612.101789474487,-98646.42766571045,4953.011415903069,4853.5950689036035
-6104.6552734375,83164.20552110672,6199.256287097931,-76964.94923400879,4964.489963778076,4181.728087770044
-6188.09619140625,87755.03051710129,6272.064197063446,-81482.96632003784,4972.9813605085465,4199.830752757412
-6571.26025390625,102057.94796085358,6583.1140832901,-95474.83387756348,4948.960089364853,3215.4968695982484
-6112.0625,87402.41169500351,6228.752355098724,-81173.65933990479,4226.7295255699455,2147.406084241264
-6228.35107421875,90902.89024019241,6314.26744890213,-84588.62279129028,4949.400041277582,2669.4864356645367
-6520.57080078125,97760.93996238708,6529.533281326294,-91231.40668106079,4971.563860999393,4318.578157926677
-6128.423828125,93543.44754886627,6284.7162981033325,-87258.73125076294,4692.5180390036885,3430.682003898629
-6308.013671875,90597.46171665192,6362.256176948547,-84235.20553970337,4986.706966073826,1141.1899614346523
-6080.29541015625,84303.80228042603,6199.596084594727,-78104.2061958313,3147.029498953744,4039.493579347206
-6491.0322265625,98055.60420131683,6514.217341423035,-91541.3868598938,3338.638606909055,4457.031438146649
-6322.90673828125,96101.17647266388,6405.73460483551,-89695.44186782837,4920.317295574236,3251.9759545303814
-6152.36181640625,85588.64983272552,6242.466242790222,-79346.1835899353,4945.176225809925,4901.3537740015
-6309.50634765625,91881.79442214966,6372.057613372803,-85509.73680877686,4937.68680124615,2907.6657944832154
-6105.88232421875,89894.4437417984,6247.320605278015,-83647.12313652039,3803.3321096859704,4233.511933655724
-6262.2001953125,87412.65960407257,6316.404183387756,-81096.25542068481,4977.155104343456,4914.758401791192
-6635.7998046875,104677.73434305191,6642.034918308258,-98035.69942474365,4945.754915922984,4208.073188613909
-6289.35693359375,90464.12616157532,6359.474252700806,-84104.65190887451,4972.635040136824,4916.81656158794
-6239.14404296875,90365.00853967667,6324.572859287262,-84040.4356803894,4941.518513856003,3113.291540652418
-6338.64013671875,92076.50861024857,6391.104122638702,-85685.40448760986,4947.272198144283,4933.559878922231
-6298.91748046875,91413.91647052765,6376.291592597961,-85037.62487792969,4949.928120265627,4061.571753792826
-6279.18017578125,93758.99511575699,6375.546972751617,-87383.44814300537,4455.351166213269,2108.7417375718314
-6502.88330078125,99244.56105566025,6522.21218252182,-92722.34887313843,4539.818899124987,3637.772086933139
-6157.00634765625,85393.72595691681,6249.080594062805,-79144.645362854,4193.607875186936,3761.6891434343015
-6475.35302734375,97572.63345623016,6509.682494163513,-91062.95096206665,4950.154288891592,4387.44458571627
-6697.30224609375,112345.56057024002,6709.282249927521,-105636.2783203125,3862.911939175433,2983.8104714014867
-5944.78173828125,84297.70579910278,6105.856956481934,-78191.84884262085,4067.1083837111737,3925.9459557025525
-6248.626953125,93768.74083900452,6334.012323379517,-87434.728515625,4477.791425306389,4291.615454178549
-6384.904296875,93950.8088145256,6429.882594585419,-87520.92621994019,4989.879774604093,3779.900285430417
-6271.58447265625,92340.01455307007,6352.950973510742,-85987.06357955933,3580.1756781048143,4801.158311262543
-6135.3203125,86947.92387247086,6286.627073764801,-80661.29679870605,4959.53079121399,4107.394211730201
-6447.45166015625,100520.73647975922,6512.9297704696655,-94007.80670928955,4919.032347289169,1269.930381282108
-6589.185546875,105827.11857652664,6609.7110714912415,-99217.4075050354,4182.430267923396,4927.0152296073375
-6258.51171875,98272.59752988815,6366.594171047211,-91906.00335884094,3503.0490664372105,1952.9578738689029
-6151.298828125,85241.41248989105,6239.16928768158,-79002.24320220947,4930.326142306256,3691.843898669106
-6493.1953125,96381.56374692917,6516.986129283905,-89864.57761764526,4964.282931167713,4069.210757065944
-6249.03271484375,95807.83714151382,6349.372107028961,-89458.46503448486,4982.202740300463,3044.601600486155
-6508.9150390625,99631.8823723793,6533.397181034088,-93098.48519134521,4945.318954814366,4381.905212222806
-6179.39990234375,90806.4758515358,6292.176226139069,-84514.29962539673,2568.440366654487,3749.381486334357
-6550.93115234375,101185.78101491928,6570.130605220795,-94615.65040969849,4453.911374096372,3589.4818824989075
-6282.6357421875,89580.74841165543,6367.610014438629,-83213.1383972168,3466.3767829417893,3947.6587335448335
-6346.8037109375,102431.93000841141,6462.628971576691,-95969.30103683472,4032.6908978312727,3257.525415356581
-6386.048828125,93118.0568523407,6420.056684494019,-86698.00016784668,4942.5975517389,4728.55000803006
-6528.8876953125,108238.74409389496,6593.296324729919,-101645.44776916504,3989.1158614039705,2593.061570589607
-5914.4765625,80233.00063419342,6077.539700508118,-74155.4609336853,4914.259265706444,1812.5051552992277
-6524.88330078125,99184.09906721115,6537.058768749237,-92647.04029846191,4976.351914470273,4823.826230972912
-6113.61083984375,89480.63074970245,6267.071576118469,-83213.55917358398,3300.7593473194,4923.049952739629
-6400.9521484375,93139.46180820465,6442.332795143127,-86697.12901306152,4287.353172676148,4015.013777496634
-6454.89111328125,99106.14553594589,6521.904603481293,-92584.2409324646,2843.1447772205383,1128.0184345946514
-6534.43212890625,102135.45589160919,6556.07323551178,-95579.38265609741,4947.924932226651,4266.039705048955
-6064.27734375,85316.85380554199,6216.885627746582,-79099.96817779541,4579.323211064402,3070.077223113896
-6346.4052734375,92923.02769851685,6414.917106628418,-86508.11059188843,3447.4216349734697,4623.977754806242
-6547.27783203125,106543.60668039322,6602.748198032379,-99940.85848236084,4693.6396527139095,884.8188323438666
-6346.9404296875,90395.92871618271,6392.649289608002,-84003.2794265747,4906.014684786497,4395.899329620121
-6276.8369140625,92650.72283315659,6381.841706752777,-86268.88112640381,4934.924426814707,4680.218103116403
-6235.94970703125,92482.10389232635,6339.355395317078,-86142.74849700928,4951.46017482398,3940.358835300952
-6335.7392578125,93519.3187084198,6407.004709243774,-87112.31399917603,4973.60252059348,2994.525539496066
-6632.37109375,105334.48753404617,6648.115387439728,-98686.37214660645,3090.032329694025,4006.418870444731
-6089.50537109375,83478.93131828308,6199.859098434448,-77279.07221984863,4951.447530436908,4913.07846629745
-6427.96923828125,94656.0667514801,6478.204465866089,-88177.86228561401,4928.949799036678,4562.298515746467
-6147.228515625,94902.00482320786,6380.762444972992,-88521.24237823486,4963.493881026591,3990.503801739787
-6509.583984375,97747.18968486786,6534.947123527527,-91212.24256134033,4928.783159759245,3935.250581269047
-6181.005859375,87069.75212860107,6286.146377563477,-80783.6057510376,3427.9735029723042,4760.763817523509
-6718.91064453125,110725.63076353073,6726.457019329071,-103999.17374420166,4543.667520301831,4024.8353003372285
-6204.77099609375,92161.76866722107,6330.826105117798,-85830.94256210327,4224.280559043332,3677.8719224670685
-6694.00439453125,111283.6496462822,6709.030269145966,-104574.61937713623,4961.460762251405,4304.498577995901
-6234.8154296875,95415.70225715637,6344.253644943237,-89071.44861221313,3009.8681304406327,2078.962778418158
-6348.88671875,92036.72653198242,6417.54500579834,-85619.18152618408,4950.327508000082,4474.943238460248
-6340.69970703125,95397.20704078674,6427.257543563843,-88969.9494972229,390.4911699868729,1231.3642480101748
-6329.84423828125,90505.45798492432,6387.303291320801,-84118.15469360352,2434.1500254032007,3551.9326122653665
-6502.6318359375,100920.48059415817,6555.629081249237,-94364.85151290894,3129.133551455069,4195.543852949862
-6008.68603515625,90667.66108608246,6156.610150337219,-84511.05093574524,3945.736757463511,1335.8201760469994
-6402.27490234375,92801.55258893967,6437.557063579559,-86363.99552536011,4121.020445191041,3132.5292101845143
-6675.5693359375,110314.52186012268,6693.930498123169,-103620.59136199951,3767.344526723887,4910.74403805038
-6171.623046875,92674.81392478943,6318.488971710205,-86356.32495307922,4947.504879709363,4540.428150674534
-6561.197265625,103086.9172668457,6600.014793395996,-96486.9024734497,4492.301895619443,3385.7316808446194
-6270.74609375,92522.94865942001,6364.195405483246,-86158.75325393677,4947.465417180829,3980.697124475921
-6222.53515625,92249.85271072388,6358.699478149414,-85891.15323257446,4945.591527178034,3947.810466497622
-6357.7216796875,94919.14270544052,6423.616265773773,-88495.52643966675,4186.1528548774295,4091.5675487505855
-6340.005859375,93680.96107625961,6412.064183712006,-87268.89689254761,4950.055575762805,3617.151398304559
-6738.51611328125,114744.48303699493,6761.288784980774,-107983.19425201416,4879.889424386754,2124.865381203682
-6161.1025390625,88290.6609005928,6290.23668718338,-82000.42421340942,4998.036029159592,4455.242397739414
-6704.23046875,113197.71967220306,6732.346892356873,-106465.37277984619,4942.948342923242,4845.791765615882
-6323.44921875,97894.24221467972,6414.7501492500305,-91479.49206542969,4931.427350489238,4935.103703590414
-6328.888671875,95933.9954996109,6408.7730531692505,-89525.22244644165,3477.4155714905255,4891.4885683984785
-6153.73876953125,85437.42494916916,6248.488597393036,-79188.93635177612,4927.453284101953,1971.8090024719654
-6359.64990234375,98317.72772932053,6454.915469646454,-91862.81225967407,4275.117713178501,3657.603531586653
-6366.6025390625,97668.00585794449,6458.657148838043,-91209.34870910645,3145.069293550375,3420.5976908239027
-6351.4208984375,93026.02539157867,6408.281319618225,-86617.74407196045,4947.127170301709,3975.8176472826135
-6566.02978515625,112906.99322462082,6670.859174251556,-106236.13405036926,4950.539812438929,937.0162739887395
-6452.4228515625,96022.0502204895,6489.070575714111,-89532.97964477539,4373.333943190347,4890.447033702293
-6369.65869140625,94213.83662462234,6427.2063908576965,-87786.63023376465,4200.31499245245,4582.952149023107
-6464.15625,102774.82452249527,6546.085512638092,-96228.73900985718,4944.956270012172,3179.633619446423
-6734.71435546875,113904.25093650818,6747.318868637085,-107156.9320678711,4952.640283596152,4621.671642325191
-6083.0859375,85346.00915527344,6203.600971221924,-79142.40818405151,4925.085470160275,4866.0497041312665
-6510.40576171875,113242.96029949188,6630.899786949158,-106612.06051254272,3762.7947412989392,2307.855150832831
-6269.37841796875,87866.4625005722,6338.59986782074,-81527.86263275146,4983.956229384823,3424.8749444742366
-6444.50927734375,104138.04428339005,6519.241184711456,-97618.80309867859,4942.133568145268,3896.3610652780635
-6770.25244140625,115530.86227369308,6783.0464243888855,-108747.8158493042,4972.975284230031,4950.908667416503
-6125.79345703125,87877.0106754303,6253.761846542358,-81623.24882888794,4945.15862227621,3480.4635578782063
-6437.54296875,102222.59752225876,6520.8085017204285,-95701.78902053833,4930.112006480586,4906.959945436967
-6278.20556640625,92315.2339925766,6379.835806846619,-85935.39818572998,4568.104646312893,2859.832923534904
-6722.14306640625,111594.46977901459,6738.680953025818,-104855.78882598877,4940.42558945148,4181.252501521921
-6385.19189453125,97635.83088302612,6473.47452545166,-91162.35635757446,4233.156293314474,4659.054784496923
-6376.27978515625,97692.33324956894,6455.2084975242615,-91237.12475204468,4913.1839615648005,3984.732096033461
-6149.4560546875,88656.14608335495,6276.873317241669,-82379.27276611328,4982.238382725503,2743.1721861376545
-6725.31201171875,107899.82294273376,6733.876035690308,-101165.94690704346,4960.631627225868,4136.206140572459
-6524.5419921875,110609.65363788605,6611.386429786682,-103998.26720809937,4890.790260505392,695.0368157333147
-6319.501953125,91932.36562538147,6407.988485336304,-85524.37714004517,2236.049590600156,3910.4493792756302
-6373.41357421875,96310.2209391594,6447.359286785126,-89862.86165237427,4455.667899018071,4953.702841088716
-6145.2353515625,91722.18357801437,6285.247001171112,-85436.93657684326,4329.149537104465,4013.1980877713454
-6312.7529296875,92242.69411706924,6405.07781457901,-85837.61630249023,3254.3949823255634,4901.623761360423
-6548.00927734375,105590.70861721039,6613.690920829773,-98977.01769638062,4190.780971466005,1101.2024758785167
-6666.78564453125,108531.62527513504,6688.317001819611,-101843.30827331543,4150.139942415446,3157.3558712091326
-6914.0390625,130318.63347387314,6918.0475516319275,-123400.58592224121,4962.466124890985,4915.264125973059
-6050.09912109375,86078.80601406097,6190.746424674988,-79888.05958938599,4952.616046673653,3767.442437264895
-6205.27880859375,98211.90954637527,6373.205759525299,-91838.70378684998,2262.8801127835263,1625.1056498699468
-6470.94384765625,98989.8110795021,6518.3066239356995,-92471.5044555664,4426.225536952169,788.0851890622271
-6591.50927734375,104707.56116199493,6621.947041511536,-98085.6141204834,4955.285293200692,4881.310759043352
-6560.060546875,117015.32988262177,6665.643542289734,-110349.68634033203,4133.136313348105,261.6506572381801
-6335.09130859375,92085.6703619957,6395.4050459861755,-85690.26531600952,4870.603586610312,4907.44835628605
-6225.9609375,91695.65991830826,6339.260889530182,-85356.39902877808,4066.111655724846,4886.863636161409
-6433.16943359375,97285.99389362335,6491.75063419342,-90794.24325942993,4228.749931625671,4884.616288116615
-6309.72509765625,96059.48722839355,6417.488964080811,-89641.99826431274,4009.100699191635,4128.078325035027
-6612.6962890625,112523.43263864517,6666.411684513092,-105857.02095413208,4919.639920636778,1536.2246151732652
-6343.03271484375,92832.97947788239,6422.33852481842,-86410.64095306396,4191.849126499246,3156.016912664546
-6742.2919921875,118256.35252046585,6771.045696735382,-111485.30682373047,4908.397366703579,4181.8201757701345
-6321.998046875,104461.68126058578,6435.140344142914,-98026.54091644287,4190.49771556018,4609.998403778425
-6281.39306640625,90969.91253900528,6366.006334781647,-84603.90620422363,4206.662610641174,4146.656298887121
-6786.32275390625,118590.16344833374,6803.532962799072,-111786.63048553467,4936.0453234141405,3834.749744427461
-6030.37841796875,81979.38663482666,6190.169853210449,-75789.21678161621,4933.002011229131,3603.3772057930228
-6542.76123046875,112627.36804389954,6632.968486785889,-105994.39955711365,4182.151360351282,1591.190193839966
-6459.77197265625,98122.73413944244,6497.482365608215,-91625.25177383423,4946.977720793624,4933.801522518115
-6257.80712890625,93552.28678035736,6375.88640499115,-87176.40037536621,2177.3062510896198,694.6741309548581
-6501.5673828125,97394.31531620026,6532.785153388977,-90861.53016281128,4954.632357916215,3846.7650576741717
-6054.13427734375,89528.01016521454,6272.096795082092,-83255.91337013245,4979.875504010592,4643.8787103266095
-6494.818359375,103692.07209253311,6561.284861087799,-97130.78723144531,4626.145633520314,3708.9034547303754
-6532.7666015625,104432.46039915085,6589.585750102997,-97842.87464904785,3252.4632176575788,1651.8198283988509
-6242.330078125,89250.42983388901,6327.0690932273865,-82923.36074066162,3986.5554230602734,4574.058190014309
-6507.67041015625,98889.28995037079,6565.5531187057495,-92323.73683166504,4163.779145867267,2680.9793085336323
-6395.1728515625,97955.3564362526,6467.377657413483,-91487.97877883911,4986.719386491493,2735.6529140395096
-6505.25634765625,107118.29029083252,6588.382907867432,-100529.90738296509,4950.74366975392,4928.408320204171
-6555.93798828125,110222.00935316086,6624.300433635712,-103597.70891952515,2166.262712281481,2235.5240802068915
-6646.47509765625,108944.86328411102,6669.812853813171,-102275.05043029785,4894.946909833955,4898.76700498763
-6380.70263671875,110109.08277130127,6521.306095123291,-103587.77667617798,1413.7288600644836,2830.370218088811
-6306.6044921875,89366.72302055359,6380.541036605835,-82986.18198394775,4136.020864268529,4867.224403026032
-6433.6494140625,103119.59948635101,6519.3824644088745,-96600.21702194214,4983.147781921289,3451.5494915687377
-6769.2529296875,115757.22284603119,6781.674941062927,-108975.54790496826,3484.792794768644,4456.974309794156
-6336.60888671875,99725.31256103516,6434.476306915283,-93290.83625411987,2646.4127102598804,4898.111175338625
-6419.63134765625,100296.19952774048,6510.899887084961,-93785.29964065552,4354.688300976654,4060.2904628158003
-6836.2080078125,120332.91494464874,6849.12283039093,-113483.79211425781,4900.417329417081,3989.8220367302083
-6065.74365234375,89638.47968363762,6233.729157209396,-83404.75052642822,4568.119355095907,3940.0169745317603
-6294.1728515625,96702.83282852173,6419.330020904541,-90283.50280761719,4252.101339086796,4055.6205555037423
-6613.7841796875,105991.37312173843,6649.726473331451,-99341.64664840698,4964.397118932737,4022.84461506601
-6375.27685546875,98092.03739595413,6472.111458301544,-91619.92593765259,4956.615768460833,4886.984125415814
-6591.03369140625,106420.17497396469,6638.82457113266,-99781.35040283203,4560.063612081509,4005.924722280314
-6242.0791015625,92089.22265768051,6362.335328578949,-85726.88732910156,4855.8136553674485,4475.5166962875865
-6941.013671875,129886.28228187561,6942.893198013306,-122943.3890838623,4210.451964223218,4015.665729923363
-6039.4716796875,87576.63565158844,6205.139151573181,-81371.49650001526,4957.771276087935,3996.666928495346
-6589.931640625,104118.24365711212,6629.857716560364,-97488.38594055176,4933.6194809125345,4442.604215781758
-6430.3134765625,108416.82058286667,6529.748881816864,-101887.0717010498,4931.313592654131,3167.630905603457
-6744.1708984375,114690.26692056656,6764.181116580963,-107926.0858039856,3552.767675778916,1973.9671213190336
-5771.26953125,82285.77845644951,6122.162607908249,-76163.61584854126,4939.638190795337,4739.167237894295
-6336.40771484375,92048.01728153229,6409.783299446106,-85638.23398208618,4967.665206936721,2486.9434251318744
-6608.00048828125,110611.61602783203,6669.5341873168945,-103942.08184051514,4363.222737284295,1339.005068484874
-6268.357421875,91993.53680038452,6342.527366638184,-85651.00943374634,4517.084241711977,3556.8692857673304
-6383.3037109375,96790.55359458923,6475.930917739868,-90314.62267684937,4953.927397866702,4919.456882800562
-6459.27001953125,102722.73872041702,6553.468178272247,-96169.27054214478,4498.18277294784,4128.514495470031
-6431.52490234375,98222.33185958862,6514.806129455566,-91707.52573013306,4042.0234063933954,3056.391445827413
-6441.82861328125,99348.1220741272,6528.8942527771,-92819.2278213501,4148.0665103656,2495.6019597054865
-6392.73193359375,101473.33199501038,6489.95742225647,-94983.3745727539,3795.2899647751888,3902.9346098513356
-6636.62890625,109985.64627361298,6681.438700675964,-103304.20757293701,4597.767483057738,2442.19268245665
-6072.20849609375,90229.46829462051,6230.047949314117,-83999.4203453064,4638.3899919252235,471.9348236356788
-6632.77880859375,104044.40620946884,6647.156224727631,-97397.24998474121,3689.83087739512,2828.0257073426314
-6335.45458984375,98521.92448759079,6441.759332180023,-92080.16515541077,2786.3033094889342,994.6133791224196
-6529.6083984375,100590.97204685211,6578.7341203689575,-94012.23792648315,4030.612029543925,3915.540921946951
-6213.65087890625,95274.53044366837,6360.188326358795,-88914.34211730957,4044.552833880839,3251.4705778808543
-6761.60205078125,111656.18621873856,6773.238853931427,-104882.94736480713,4936.242249379927,4708.791517906977
-6287.5625,98036.85746240616,6412.920841693878,-91623.93662071228,4012.201348227239,4638.942553714178
-6592.99658203125,110060.2955532074,6669.802572250366,-103390.49298095703,4908.487349642877,2572.0132681653295
-6587.0869140625,104512.6026468277,6628.7311182022095,-97883.87152862549,4389.511392807925,4017.808601719195
-6116.40576171875,93085.20071053505,6296.55940079689,-86788.64130973816,4398.790911761901,1025.4856423375822
-6515.44873046875,99649.34950637817,6556.216667175293,-93093.13283920288,4933.2448702509555,4918.1907601048715
