loss,margin,positive_reward,negative_reward,deterministic_return
0.0,0.0,0.0,0.0,0.5088239328237454
905.215576171875,-976.1291704177856,-2932.8714537620544,-1956.7422833442688,9.287587000917634
295.3647155761719,379.1359827518463,-1455.1987566947937,-1834.33473944664,-4.389952644807404
192.5630340576172,949.9871106147766,-785.7816216945648,-1735.7687323093414,-10.772392396207039
159.64527893066406,1306.2610911726952,-348.58937507867813,-1654.8504662513733,-11.585476550587211
146.22108459472656,1565.9992357779265,-8.615128846096923,-1574.6143646240234,-14.10443154341495
140.7930450439453,1773.4370990395546,276.0239823460579,-1497.4131166934967,-12.563453983270167
140.5894775390625,1937.1888515353203,525.764237344265,-1411.4246141910553,-13.275343926920295
144.14700317382812,2075.3680113554,749.3849309682846,-1325.9830803871155,-11.925063672588106
149.55322265625,2189.948992729187,951.6755390167236,-1238.2734537124634,-8.75198711543864
158.29095458984375,2277.3081130981445,1134.4099900722504,-1142.8981230258942,-12.206742361003702
169.23440551757812,2341.501076221466,1298.8918063640594,-1042.6092698574066,-12.858866203693346
180.81646728515625,2391.3218429088593,1444.614986896515,-946.7068560123444,-12.080560971505568
194.2968292236328,2416.0061864852905,1571.7374355793,-844.2687509059906,-12.971030129228463
209.4873504638672,2430.890724182129,1681.4385397434235,-749.4521844387054,-13.440188213605099
222.51150512695312,2434.629238843918,1770.415221452713,-664.2140173912048,-13.530696847937417
236.1597442626953,2422.1592332720757,1841.4049146175385,-580.7543186545372,-13.735211262138353
248.3047637939453,2412.3453718423843,1895.540973186493,-516.8043986558914,-13.462745878621114
257.5115051269531,2400.2836669683456,1934.0370922088623,-466.24657475948334,-15.363773427256397
264.1295166015625,2392.5146067142487,1955.2246842384338,-437.2899224758148,-14.373000961698585
267.15985107421875,2388.140618145466,1971.0290386676788,-417.111579477787,-15.845954600214675
269.6724548339844,2382.489524245262,1978.8763918876648,-403.61313235759735,-14.524390835312312
271.0015563964844,2380.5807046592236,1986.3093388080597,-394.27136585116386,-15.633975796734605
270.8102722167969,2380.430363327265,1986.1057796478271,-394.32458367943764,-16.128323979748625
271.633544921875,2380.5713623166084,1989.103794336319,-391.46756798028946,-16.60513535321601
271.4832763671875,2382.771283119917,1987.9399950504303,-394.8312880694866,-15.31418202319477
271.4680480957031,2381.920329928398,1989.5544564723969,-392.3658734560013,-14.96438725767218
271.7970886230469,2382.3459784686565,1990.744577884674,-391.60140058398247,-15.308339522822768
271.3482666015625,2381.2278988063335,1990.1387417316437,-391.08915707468987,-16.90345475837845
271.3846130371094,2382.2315150797367,1986.855886220932,-395.3756288588047,-17.21086973196456
271.45941162109375,2380.9835291802883,1986.915978193283,-394.06755098700523,-15.260815825526752
270.7099914550781,2382.127644389868,1988.7262017726898,-393.40144261717796,-16.64112777031339
272.0297546386719,2381.8051772117615,1989.8963544368744,-391.9088227748871,-15.102679651321933
271.7015075683594,2379.418818384409,1986.189403295517,-393.229415088892,-15.448531644836319
270.9493713378906,2382.032166838646,1986.7195513248444,-395.3126155138016,-16.16084927124671
271.86492919921875,2380.9689186513424,1988.5008404254913,-392.46807822585106,-15.411645367715202
271.72967529296875,2381.4296245872974,1985.1127662658691,-396.3168583214283,-15.88856046642732
271.0007629394531,2377.352844953537,1988.4259560108185,-388.9268889427185,-16.123623244836853
272.2893981933594,2379.9986040890217,1988.98437833786,-391.0142257511616,-16.772478234857086
271.0555725097656,2383.1080608665943,1985.044222831726,-398.06383803486824,-14.598902907909057
271.2753601074219,2381.823724269867,1989.5216522216797,-392.30207204818726,-15.058689479155086
272.12518310546875,2381.9665636718273,1988.9851467609406,-392.98141691088676,-15.20689970696477
270.29254150390625,2384.9804214835167,1989.4311311244965,-395.54929035902023,-15.329225211758647
271.23358154296875,2381.4467272162437,1990.980043888092,-390.4666833281517,-15.509843691668285
272.01934814453125,2379.969335049391,1991.223806142807,-388.7455289065838,-14.699269791347692
271.84515380859375,2382.660490989685,1987.8790576457977,-394.78143334388733,-13.320411175102107
270.8033142089844,2383.849091589451,1985.3706817626953,-398.4784098267555,-15.711209524316619
271.7403869628906,2381.005994170904,1989.2552139759064,-391.7507801949978,-16.097848793635833
271.109130859375,2384.1748684048653,1989.5195910930634,-394.6552773118019,-16.186512872107407
270.96197509765625,2379.596199005842,1989.4336290359497,-390.1625699698925,-16.216269671044568
272.0553283691406,2380.362217962742,1989.5569505691528,-390.805267393589,-15.152855020001281
271.83758544921875,2382.873982489109,1991.2184059619904,-391.6555765271187,-16.661910148832522
271.6204833984375,2379.663551211357,1990.3069033622742,-389.35664784908295,-15.705463991614057
271.6856384277344,2381.360505849123,1985.973821401596,-395.38668444752693,-16.65464334409136
271.77667236328125,2381.061780780554,1989.316030740738,-391.7457500398159,-14.382041368412011
270.0937805175781,2387.497335255146,1989.0987856388092,-398.3985496163368,-15.533262012998057
272.10272216796875,2379.1406544446945,1986.9794735908508,-392.1611808538437,-16.00625755756235
271.29901123046875,2382.6670077443123,1989.3287098407745,-393.33829790353775,-15.899015606683204
271.1986083984375,2383.0754112005234,1988.7358918190002,-394.33951938152313,-14.461194492017317
271.3293151855469,2382.223563939333,1988.052284002304,-394.1712799370289,-16.370535138476157
270.82586669921875,2381.5278406739235,1985.856284379959,-395.6715562939644,-16.304836012570785
271.3288879394531,2380.925111144781,1989.827466249466,-391.09764489531517,-15.009512945850746
271.8033752441406,2379.777988433838,1988.2684435844421,-391.50954484939575,-16.394797139463765
271.3283996582031,2381.615626811981,1984.9995560646057,-396.6160707473755,-15.083657445564507
270.573974609375,2383.0553654432297,1987.4643323421478,-395.59103310108185,-14.988130583288314
271.48797607421875,2382.3946864902973,1988.6560325622559,-393.73865392804146,-15.028797388366623
271.09747314453125,2381.856858253479,1986.758276462555,-395.0985817909241,-18.14096056541361
272.1790466308594,2378.370834350586,1990.3306214809418,-388.04021286964417,-16.67433144434782
272.3102722167969,2377.510991483927,1985.3375990390778,-392.173392444849,-16.24239059317216
271.50347900390625,2378.5807381272316,1986.4942984580994,-392.08643966913223,-15.109599006285194
271.9264831542969,2378.2778986394405,1989.1644232273102,-389.11347541213036,-16.433759980580874
271.9441223144531,2379.7496216893196,1989.30513215065,-390.4444895386696,-14.928400487306423
271.2818298339844,2382.7278497219086,1989.2389283180237,-393.4889214038849,-16.466457586906056
272.5644226074219,2380.098255574703,1989.306910276413,-390.79134529829025,-15.526255975066064
270.8015441894531,2382.062420517206,1986.2526652812958,-395.8097552359104,-16.951506752893977
271.6601867675781,2382.6680461466312,1986.93727517128,-395.73077097535133,-16.60900805883044
270.8002014160156,2385.0004783272743,1986.602120399475,-398.3983579277992,-15.007571555101261
271.892578125,2381.9352564811707,1986.9273281097412,-395.00792837142944,-17.5417411856918
271.34326171875,2383.608149409294,1990.0138432979584,-393.59430611133575,-16.26226290879596
271.68621826171875,2378.929612159729,1984.9737784862518,-393.9558336734772,-17.892582729210286
271.10650634765625,2384.4563017487526,1989.3262391090393,-395.1300626397133,-16.683625884931686
271.6638488769531,2380.8944363594055,1990.8760509490967,-390.01838541030884,-16.394152971303793
270.8660888671875,2382.991240620613,1990.474859237671,-392.5163813829422,-17.14877395101293
272.1773681640625,2378.602176576853,1992.0245702266693,-386.5776063501835,-16.07348208375371
271.31707763671875,2380.0415105223656,1986.5954172611237,-393.4460932612419,-15.942207039560348
271.95501708984375,2380.575484752655,1990.754605770111,-389.82087898254395,-15.321864702999294
271.51995849609375,2380.7012664675713,1988.7005162239075,-392.0007502436638,-17.10256784373759
271.7258605957031,2380.7808440327644,1990.1797235012054,-390.601120531559,-15.850699798167271
271.3809814453125,2381.4557403326035,1989.494068145752,-391.9616721868515,-13.475435470833952
271.4894714355469,2383.6113578677177,1990.524174451828,-393.08718341588974,-14.03350071560824
271.8841247558594,2379.853871166706,1991.632559299469,-388.2213118672371,-15.697246018697296
272.5009460449219,2381.0017824172974,1987.995448589325,-393.0063338279724,-15.796660555730115
271.5306396484375,2381.6398008465767,1988.7170386314392,-392.9227622151375,-15.74762870793088
271.44952392578125,2381.685436487198,1988.749606847763,-392.9358296394348,-15.67140777953584
271.5633239746094,2382.914409339428,1991.8551604747772,-391.0592488646507,-16.433125241365005
271.8642272949219,2384.459259748459,1989.7105419635773,-394.7487177848816,-14.418540448429264
271.21484375,2382.913546591997,1989.6461434364319,-393.26740315556526,-15.250423843826155
272.09466552734375,2378.222128391266,1990.5565898418427,-387.6655385494232,-16.735102978485813
271.8651123046875,2380.647098004818,1989.9826867580414,-390.6644112467766,-16.218694827193385
271.52508544921875,2381.661850810051,1987.17440533638,-394.48744547367096,-15.839937316864189
271.7315979003906,2380.0523125231266,1986.707545042038,-393.34476748108864,-15.707607582397385
271.5310974121094,2381.250709861517,1986.3515093326569,-394.8992005288601,-16.019143712576792
272.07720947265625,2383.0251695513725,1986.9224047660828,-396.10276478528976,-14.745829925216125
270.8205871582031,2382.7475263774395,1989.3625090122223,-393.3850173652172,-15.493568307375469
271.4097595214844,2380.788699954748,1986.6392812728882,-394.14941868185997,-13.786029834173608
270.4991149902344,2383.979411929846,1986.8386631011963,-397.1407488286495,-16.34668542617838
272.002685546875,2378.3781179487705,1988.2934544086456,-390.0846635401249,-16.102315353667127
272.0567321777344,2380.594894886017,1983.2467579841614,-397.34813690185547,-16.038362903120067
270.4024353027344,2384.437965154648,1984.1105971336365,-400.32736802101135,-17.331663167762244
270.596435546875,2382.413720846176,1986.1838929653168,-396.2298278808594,-15.967494003355446
271.22137451171875,2381.548089504242,1988.5121042728424,-393.03598523139954,-15.588543684512736
271.10235595703125,2381.784668505192,1990.39110994339,-391.3935585618019,-16.361497000564967
271.4866943359375,2382.464955508709,1991.7741754055023,-390.69078010320663,-16.161093817308238
272.7275390625,2380.4896925985813,1992.0638041496277,-388.42588844895363,-15.607932645462785
271.8042907714844,2380.2068224549294,1988.7348701953888,-391.47195225954056,-14.81396733551263
271.1298522949219,2384.52003467083,1991.086750984192,-393.4332836866379,-16.65853896910604
271.6259460449219,2382.2889692485332,1989.4392840862274,-392.84968516230583,-15.17334077742976
272.1349182128906,2380.460303515196,1990.9222483634949,-389.538055151701,-16.515986262852156
271.0088806152344,2383.939376592636,1987.0839974880219,-396.85537910461426,-15.67042204472283
270.8500061035156,2382.1060746610165,1987.3879976272583,-394.71807703375816,-15.585593820646833
271.2801208496094,2380.958786994219,1989.835296869278,-391.1234901249409,-15.856425025484299
271.308837890625,2382.861638069153,1989.035712480545,-393.8259255886078,-15.86599513259384
271.54052734375,2381.7793622612953,1991.3321857452393,-390.44717651605606,-16.075602651887213
272.2272033691406,2377.897977858782,1987.8236067295074,-390.07437112927437,-14.527652180542413
271.6456298828125,2378.2876985669136,1987.8167176246643,-390.4709809422493,-16.87457950437541
271.25323486328125,2386.061125457287,1989.890398979187,-396.1707264780998,-16.14775147170949
270.60400390625,2383.1795669794083,1985.6656725406647,-397.5138944387436,-15.510823316486428
271.61212158203125,2381.4435083270073,1989.6341788768768,-391.80932945013046,-14.860685717979658
271.5711669921875,2380.896159827709,1988.0739464759827,-392.82221335172653,-14.178347897491635
270.9195556640625,2382.5426727235317,1988.6723012924194,-393.8703714311123,-16.80687694442035
272.0367431640625,2376.3064375519753,1987.991840839386,-388.31459671258926,-17.55388210767354
271.5345458984375,2383.2431058883667,1988.2594871520996,-394.9836187362671,-15.245297400179034
271.0025329589844,2381.6027807593346,1984.3262495994568,-397.2765311598778,-16.285188326057504
271.0950622558594,2381.4586826860905,1991.0009632110596,-390.4577194750309,-15.24760241652506
271.2706604003906,2383.236022233963,1991.832534790039,-391.40348744392395,-15.903781198797935
272.8213806152344,2378.596991956234,1989.7601296901703,-388.8368622660637,-14.883750563528073
272.4476318359375,2376.3151663541794,1988.8885507583618,-387.42661559581757,-15.496166945995185
271.3435974121094,2381.3515829741955,1988.4154541492462,-392.93612882494926,-15.10116407640375
272.3049011230469,2376.996704250574,1985.5955183506012,-391.4011858999729,-15.344162077081494
271.51629638671875,2379.8847462832928,1985.2904422283173,-394.5943040549755,-15.343941232380791
271.0212097167969,2383.511176764965,1987.4761216640472,-396.0350551009178,-15.36685616630935
272.1372375488281,2379.8327978253365,1985.6716892719269,-394.1611085534096,-14.85210281241379
271.3249816894531,2379.9178712666035,1985.4200644493103,-394.49780681729317,-16.140362571078338
271.7008972167969,2379.33722949028,1989.1843502521515,-390.15287923812866,-14.994324141235722
271.8974609375,2377.9751031398773,1989.9659497737885,-388.00915336608887,-15.168708592611695
271.3390197753906,2383.0618425905704,1987.7695305347443,-395.2923120558262,-14.603824767871531
271.52911376953125,2380.1927010416985,1987.2548959255219,-392.9378051161766,-15.975924573163669
271.9136657714844,2380.4664292037487,1986.6773200035095,-393.7891092002392,-14.850156805351357
270.9659118652344,2381.8710933327675,1989.6902117729187,-392.1808815598488,-15.602032123968339
272.327880859375,2380.194487184286,1987.8367552757263,-392.3577319085598,-13.61460071933125
270.1376953125,2387.3218871355057,1984.3866229057312,-402.9352642297745,-15.681414032615146
270.5146789550781,2382.3198626041412,1990.351241350174,-391.9686212539673,-16.368972975817996
272.1131896972656,2376.9253959059715,1989.0213425159454,-387.9040533900261,-16.00278764880111
271.9697265625,2382.1088978648186,1990.5334258079529,-391.5754720568657,-14.617926689519244
272.0906677246094,2377.1054171323776,1989.2745006084442,-387.8309165239334,-16.496171986160782
271.10858154296875,2379.2812063097954,1986.5866303443909,-392.6945759654045,-15.86593205298743
271.7097473144531,2382.7787851691246,1988.3680896759033,-394.4106954932213,-16.24395868383036
271.9875183105469,2376.678673863411,1989.2179036140442,-387.46077024936676,-16.715690644659436
272.3683776855469,2379.788399219513,1992.851356267929,-386.93704295158386,-17.1883917405073
272.7867736816406,2375.750152438879,1985.9913716316223,-389.7587808072567,-16.065776549758105
271.63226318359375,2382.131988376379,1992.4393963813782,-389.69259199500084,-17.01367270143877
272.3218994140625,2378.4694884717464,1990.642984867096,-387.8265036046505,-16.01194272682482
271.7757263183594,2383.1586343944073,1992.4948589801788,-390.66377541422844,-16.58840042487848
271.25677490234375,2382.5447386205196,1989.0085492134094,-393.5361894071102,-16.747108243286622
270.5767517089844,2385.317213654518,1988.927078485489,-396.39013516902924,-16.44307129162685
272.4325866699219,2379.0126203894615,1990.447551727295,-388.5650686621666,-16.950381247564696
271.1733093261719,2384.26293104887,1989.8107962608337,-394.45213478803635,-14.68144963281722
271.1741943359375,2381.551210999489,1987.3755345344543,-394.1756764650345,-15.538503745612275
271.56207275390625,2380.6043936014175,1989.1355996131897,-391.46879398822784,-16.15029276073479
271.4039611816406,2382.2185985445976,1989.9210555553436,-392.297542989254,-16.506923494609573
271.6210021972656,2383.464057266712,1990.2043595314026,-393.2596977353096,-16.112407201201055
271.6161193847656,2376.7851845026016,1986.8132259845734,-389.97195851802826,-15.934839265671297
271.4761657714844,2382.5577722787857,1987.444747686386,-395.1130245923996,-15.286304728445563
271.1322937011719,2383.479279011488,1988.934504032135,-394.54477497935295,-15.147273216170186
272.0220947265625,2379.6110664606094,1985.754846572876,-393.85621988773346,-16.15226084469057
270.0323486328125,2383.306111007929,1987.90363407135,-395.40247693657875,-15.61718538073689
272.1418762207031,2378.0893502235413,1989.0920116901398,-388.9973385334015,-15.997733982395935
271.34326171875,2385.0770233273506,1992.6864395141602,-392.39058381319046,-15.264606869042389
271.7327575683594,2381.3208776712418,1989.6499981880188,-391.67087948322296,-17.71740095512062
271.03253173828125,2380.02126160264,1991.8600714206696,-388.1611901819706,-16.21029330832017
272.60577392578125,2379.927976489067,1990.6522407531738,-389.27573573589325,-17.166380383638806
272.3883361816406,2378.263863801956,1988.7846217155457,-389.4792420864105,-16.74328880536698
270.6020202636719,2385.012315928936,1988.338852405548,-396.6734635233879,-15.670853856017203
271.4119567871094,2385.561779499054,1993.5790884494781,-391.9826910495758,-15.587309403224058
272.1682434082031,2382.121258854866,1990.3952360153198,-391.7260228395462,-14.797809084054432
270.9134216308594,2385.4819788634777,1983.5748407840729,-401.90713807940483,-16.57156560535717
270.9886779785156,2381.4032636880875,1985.5223805904388,-395.8808830976486,-16.149324122968398
271.95733642578125,2378.6232495307922,1984.7129106521606,-393.9103388786316,-14.703935302887086
270.37652587890625,2383.641043037176,1985.75368142128,-397.8873616158962,-15.797524154967787
271.4179992675781,2379.1949198544025,1988.4397916793823,-390.7551281750202,-16.50763232394336
271.712646484375,2380.197636693716,1990.107074022293,-390.09056267142296,-15.794569037800503
272.7951354980469,2377.1835087537766,1991.6927263736725,-385.49078238010406,-16.642841696705148
271.3352966308594,2383.1501839756966,1989.3960757255554,-393.75410825014114,-15.97805663291011
271.1736755371094,2377.1166102290154,1988.856293439865,-388.26031678915024,-14.779045439990014
271.5318298339844,2379.4251503944397,1990.9968910217285,-388.4282593727112,-15.929791089466363
271.385009765625,2384.228123962879,1990.573014497757,-393.6551094651222,-14.706684032553541
271.2221374511719,2383.182503223419,1990.4114832878113,-392.7710199356079,-17.015949160058994
272.08966064453125,2380.203684270382,1986.1346471309662,-394.06903713941574,-15.013786889691968
272.0360107421875,2379.003224492073,1988.4923837184906,-390.51084077358246,-15.321724462797613
271.2452697753906,2383.0684985518456,1988.4211473464966,-394.64735120534897,-14.374839583354113
271.671630859375,2380.213616192341,1986.0312058925629,-394.182410299778,-16.323751591585395
