loss,margin,positive_reward,negative_reward,deterministic_return
0.0,0.0,0.0,0.0,9.167194801000228
323.6953125,709.4236688762903,1379.29792445153,669.8742555752397,362.92413684965436
334.9546203613281,397.10223412513733,1864.1141428947449,1467.0119087696075,3406.5735928477584
339.3682556152344,282.71737909317017,1852.9865806102753,1570.269201517105,3443.5804497883655
339.8305358886719,267.5652997493744,1810.3494279384613,1542.784128189087,3457.62582542925
339.6425476074219,268.51939940452576,1787.5218091011047,1519.002409696579,3531.1582238980177
339.4405822753906,271.2242991924286,1727.1264996528625,1455.902200460434,3527.791148979857
339.0619812011719,276.65722823143005,1677.4025554656982,1400.7453272342682,3271.061191048696
338.88665771484375,279.9813325405121,1635.1074450016022,1355.12611246109,1770.1677648019956
338.57513427734375,286.08738684654236,1589.7394070625305,1303.6520202159882,3584.4774963877676
338.5560302734375,284.08090937137604,1521.1392674446106,1237.0583580732346,3579.0285977325493
338.54071044921875,284.44095039367676,1476.592955827713,1192.1520054340363,3662.9133111746037
338.3778381347656,287.16241896152496,1394.1392834186554,1106.9768644571304,3575.251551001256
338.4278259277344,286.0063667297363,1362.2331620454788,1076.2267953157425,3521.771828374639
338.3123474121094,288.2990077137947,1285.1043107509613,996.8053030371666,3591.112448825001
338.22283935546875,289.6501821279526,1240.9411854743958,951.2910033464432,3595.0658394959487
338.20904541015625,289.22124433517456,1161.528056025505,872.3068116903305,3597.1105155829064
338.03851318359375,292.7044883072376,1072.425837278366,779.7213489711285,3576.781454022116
337.9918518066406,293.94232132285833,1003.0047651529312,709.0624438300729,2958.881428132074
338.0855407714844,291.17927968874574,891.7263044416904,600.5470247529447,3260.9637174545956
337.97283935546875,292.98647362040356,800.0343279466033,507.04785432619974,1970.7353768125267
338.1325988769531,289.4781745849177,730.0737084615976,440.59553387667984,2284.030277975733
337.99456787109375,292.2970313501719,656.920062693971,364.6230313437991,3592.44099861246
337.9490051269531,293.04118958325125,545.140001083957,252.09881150070578,3549.720843562293
337.93499755859375,293.29582487937296,496.1322992253117,202.83647434593877,1982.5280174643701
337.9784240722656,292.03099967737217,385.13137242454104,93.10037274716888,3545.3865228969576
337.92254638671875,293.4460925759049,270.8741260753013,-22.571966500603594,3600.097123748941
338.0523681640625,289.77345530717866,124.25536307011498,-165.51809223706368,3581.0368539509163
338.169677734375,286.9612931338488,81.12265209562611,-205.8386410382227,3573.38732917481
337.98223876953125,290.86945371015463,-93.05925671593286,-383.9287104260875,3457.8741002287925
337.9367370605469,292.3905329585541,-220.12649213033728,-512.5170250888914,3497.4255829297954
338.1239318847656,287.77201905020047,-334.0806843134342,-621.8527033636346,2826.8487315506154
338.0363464355469,289.73621545743663,-636.6333994464949,-926.3696149039315,3569.524419354492
338.1656799316406,286.75422020442784,-696.9695630837232,-983.723783288151,3508.697578673502
338.07232666015625,288.51284266868606,-855.2176783489995,-1143.7305210176855,2318.6532528928583
338.1217346191406,286.8713776948862,-1001.9078520783223,-1288.7792297732085,3334.5894268085403
338.12371826171875,287.4127890490927,-1432.1698630810715,-1719.5826521301642,3568.895030053676
338.051513671875,289.19697123998776,-1461.1797375469469,-1750.3767087869346,3541.244788342413
338.1970520019531,285.51332164369524,-1690.7562620658427,-1976.269583709538,3587.70104816268
338.1993713378906,285.3339888304472,-1870.932861700654,-2156.266850531101,3563.596979605144
338.1820983886719,285.1854271814227,-1910.8092874065042,-2195.994714587927,3355.056941138917
338.0965270996094,286.9041772522032,-1985.1372144781053,-2272.0413917303085,3571.8890250712457
338.122802734375,286.70369404554367,-2078.6222240775824,-2365.325918123126,3570.59774362088
338.19805908203125,284.7079179286957,-2414.140974879265,-2698.8488928079605,3577.7072440032257
338.0651550292969,287.37292140722275,-2844.526835143566,-3131.899756550789,3575.7582690695067
338.2101135253906,284.01211792230606,-3127.256324350834,-3411.26844227314,3577.047249279896
338.191650390625,284.5646553635597,-3854.839538872242,-4139.404194235802,3578.286095905458
338.19549560546875,284.35713601112366,-3850.8719495534897,-4135.229085564613,3545.9599291924887
338.10284423828125,286.42447304725647,-4607.843876361847,-4894.268349409103,3560.2386718332637
338.27691650390625,282.4589184522629,-4561.984387397766,-4844.443305850029,3587.396841359737
338.0198669433594,287.3832256793976,-4615.480036973953,-4902.863262653351,3560.0375602432523
338.15277099609375,284.84969532489777,-4893.643733263016,-5178.4934285879135,3579.53128820309
338.1995544433594,284.2811117172241,-5260.872430086136,-5545.15354180336,2892.486052102875
338.3365783691406,281.0913972854614,-5899.997172117233,-6181.088569402695,3560.6515341765926
338.0726013183594,287.2144932746887,-6172.621513843536,-6459.836007118225,3560.5118503697436
338.2783508300781,282.30603766441345,-6820.5690042972565,-7102.87504196167,3549.4694887841515
338.2986755371094,281.93531799316406,-6841.8345601558685,-7123.769878149033,3564.920750467088
338.0942687988281,285.99662017822266,-7303.48251914978,-7589.479139328003,3563.170519859425
338.2825622558594,282.3497076034546,-7968.253952503204,-8250.603660106659,3560.4472230094966
338.2050476074219,283.22753524780273,-8589.140245437622,-8872.367780685425,3527.129373211917
338.3399353027344,280.423211812973,-10774.433616876602,-11054.856828689575,3551.6750909324046
338.3680725097656,279.29291820526123,-10820.240401744843,-11099.533319950104,3500.3703274168643
338.3269958496094,280.68995571136475,-11975.20878458023,-12255.898740291595,3558.428478233104
338.3179626464844,281.3384256362915,-11510.232035160065,-11791.570460796356,3519.011243398337
338.2747497558594,282.12571573257446,-10816.369637012482,-11098.495352745056,3569.9253330241336
338.3514404296875,280.3196210861206,-11297.383372306824,-11577.702993392944,3543.450723822548
338.3483581542969,280.69765186309814,-13260.018025398254,-13540.715677261353,3564.4640690479914
338.2685241699219,281.55723810195923,-12844.115513324738,-13125.672751426697,3566.557908730714
338.167236328125,284.2448477745056,-13062.938304424286,-13347.183152198792,3416.543983277345
338.3921813964844,279.43933391571045,-13349.618385314941,-13629.057719230652,3560.4685955997957
338.27801513671875,281.7523512840271,-13135.95278596878,-13417.705137252808,3447.2234038311285
338.2750244140625,281.192400932312,-14541.642092704773,-14822.834493637085,3356.102872795163
338.24029541015625,281.81288862228394,-13787.524954319,-14069.337842941284,3523.508151770011
338.58087158203125,274.7512369155884,-15633.547737121582,-15908.29897403717,3579.88331213141
338.35418701171875,279.84133434295654,-15921.312150001526,-16201.153484344482,3521.4176315318496
338.4834899902344,276.78032875061035,-15836.64587688446,-16113.42620563507,3554.322987595795
338.4596252441406,277.8465299606323,-16489.266635894775,-16767.113165855408,3538.112640372544
338.370361328125,279.53710746765137,-17156.783129692078,-17436.32023715973,3422.7500624931636
338.4579162597656,277.11694049835205,-18736.763100624084,-19013.880041122437,3563.7592788465977
338.3572692871094,278.8490047454834,-20322.966527938843,-20601.815532684326,3502.3189686451815
338.3901672363281,278.0983934402466,-18224.45216846466,-18502.550561904907,3504.2415268428877
338.3070373535156,280.49230766296387,-19833.20280456543,-20113.695112228394,3582.471168821837
338.48773193359375,275.99897480010986,-21317.11428642273,-21593.11326122284,3566.7578334760615
338.4939880371094,276.32457447052,-20573.414710998535,-20849.739285469055,3572.275128356374
338.5926513671875,274.47375869750977,-21745.299291610718,-22019.773050308228,3568.178543852172
338.4436950683594,276.78480434417725,-21130.652737617493,-21407.43754196167,3548.5593786018644
338.38323974609375,278.2365837097168,-21396.088676452637,-21674.325260162354,3502.952551537909
338.3595275878906,278.55787563323975,-24639.88716030121,-24918.44503593445,3408.1228328399343
338.4097595214844,278.22418785095215,-23218.261519432068,-23496.48570728302,3568.172674402853
338.4690856933594,276.38166904449463,-24382.40368080139,-24658.785349845886,3544.8584071084674
338.50775146484375,276.229097366333,-23549.248710632324,-23825.477807998657,3478.9065399539118
338.6204528808594,273.57177352905273,-25837.980204582214,-26111.551978111267,3431.589535900091
338.4388427734375,277.90914154052734,-22624.93817806244,-22902.847319602966,3555.251163498633
338.5345153808594,274.82959938049316,-23766.80197620392,-24041.63157558441,3510.9841326322053
338.5052795410156,275.58496475219727,-26314.026043891907,-26589.611008644104,3483.1678631891314
338.3913879394531,277.8122329711914,-24673.135619163513,-24950.947852134705,3342.7464915136707
338.2960510253906,279.67578125,-28361.15263748169,-28640.82841873169,3400.803803712183
338.4801330566406,276.16328620910645,-27512.399249076843,-27788.56253528595,3377.189232989194
338.4514465332031,276.0650997161865,-27325.144478797913,-27601.2095785141,3566.8079062424117
338.5048828125,275.65586280822754,-32816.50290107727,-33092.1587638855,3520.7628082975625
338.70245361328125,271.3861303329468,-27339.325308799744,-27610.71143913269,3559.787244802009
338.5330505371094,274.7865295410156,-31338.09225654602,-31612.878786087036,3476.973308901167
338.4978942871094,275.89536476135254,-29614.42336845398,-29890.318733215332,3549.6388853732315
338.4854431152344,275.95851135253906,-28712.576286315918,-28988.534797668457,3558.9869821876205
338.537841796875,274.69801139831543,-29396.778077602386,-29671.476089000702,3569.7465609949027
338.6214904785156,272.6032409667969,-30507.46844291687,-30780.071683883667,3571.8817646085145
338.461669921875,275.7192907333374,-30067.424149513245,-30343.143440246582,3528.9824593716353
338.50872802734375,275.2952175140381,-32663.418829917908,-32938.714047431946,3564.064676398823
338.5391845703125,274.3320150375366,-31757.616619110107,-32031.948634147644,3567.3090533838954
338.4981994628906,275.81978034973145,-36530.94577598572,-36806.76555633545,3491.632751696874
338.5361328125,274.58854389190674,-33797.861298561096,-34072.449842453,3555.771261210532
338.5157775878906,274.52747535705566,-36205.90251159668,-36480.429986953735,2540.272121862771
338.73309326171875,270.35909271240234,-39972.501749038696,-40242.8608417511,3491.051931265737
338.638427734375,273.08309173583984,-41836.21992111206,-42109.3030128479,3571.515250638225
338.5323791503906,274.15571784973145,-37898.244647979736,-38172.40036582947,3567.2575756096057
338.6219787597656,272.60427474975586,-42004.90041542053,-42277.50469017029,3590.242280986473
338.5524597167969,273.91258430480957,-39298.73676300049,-39572.6493473053,3551.74626342259
338.6542053222656,271.5551948547363,-38332.96975708008,-38604.524951934814,3494.3612199483064
338.6799011230469,271.08662605285645,-39126.38799095154,-39397.474617004395,3555.7718492838353
338.6028137207031,272.84435081481934,-41378.2024936676,-41651.04684448242,3570.377321522129
338.6475524902344,271.3555850982666,-42750.59204483032,-43021.94762992859,3580.676659782426
338.6846618652344,270.88383293151855,-42880.74559020996,-43151.62942314148,3481.3299621460287
338.57940673828125,273.30290031433105,-44245.44312477112,-44518.74602508545,3545.96780675364
338.63336181640625,271.6325340270996,-45068.273416519165,-45339.905950546265,3558.6011725372537
338.6820068359375,271.29480361938477,-43367.14812850952,-43638.442932128906,3540.7426622424964
338.6888122558594,271.80331230163574,-40063.251172065735,-40335.05448436737,3542.427225875073
338.6583251953125,270.8532485961914,-41131.12635421753,-41401.97960281372,3578.4447778212843
338.6679382324219,271.8350429534912,-42219.3716840744,-42491.20672702789,3568.9556620643248
338.72119140625,270.05217361450195,-42674.352394104004,-42944.404567718506,3582.360003129279
338.6614685058594,271.2953815460205,-42451.20372200012,-42722.49910354614,3584.0131356104007
338.6749572753906,270.80267906188965,-41892.577154159546,-42163.379833221436,3425.41820126607
338.4940185546875,274.576114654541,-47614.496925354004,-47889.073040008545,3465.468305268289
338.8194274902344,268.0218086242676,-48655.46648788452,-48923.48829650879,3536.227690870629
338.632568359375,271.74241638183594,-49151.24934387207,-49422.991760253906,3509.2026868183843
338.67388916015625,270.64514541625977,-47048.83716964722,-47319.48231506348,3607.043890771496
338.679443359375,270.43860054016113,-43612.914293289185,-43883.352893829346,3491.280683192788
338.6310729980469,272.13597106933594,-47193.33518409729,-47465.471155166626,3425.1944142401926
338.6944580078125,270.1539936065674,-48074.98414802551,-48345.13814163208,3515.1847364972045
338.6460876464844,270.80939865112305,-49614.364360809326,-49885.17375946045,3553.5624139191605
338.72491455078125,270.32215881347656,-50860.57902908325,-51130.90118789673,3552.9016680160175
338.6888122558594,269.83127212524414,-47373.37561225891,-47643.206884384155,3585.564193664244
338.87274169921875,266.54523277282715,-48088.876428604126,-48355.42166137695,3492.029568643867
338.78216552734375,268.4172611236572,-53818.07407951355,-54086.49134063721,3491.67290013479
338.9069519042969,265.68540382385254,-47478.3549118042,-47744.04031562805,3566.3300633114027
338.7812194824219,268.3656692504883,-47042.7112865448,-47311.07695579529,3579.893585261291
338.83221435546875,266.67601585388184,-52421.57919883728,-52688.25521469116,3533.846642169022
338.9332580566406,265.2997169494629,-51989.64555358887,-52254.94527053833,3569.846841609002
338.6886291503906,269.7733669281006,-54480.81643676758,-54750.58980369568,3564.6442218918414
338.8135681152344,266.93321418762207,-50182.491733551025,-50449.42494773865,3440.5782833267244
338.7257385253906,269.73855209350586,-51238.84954452515,-51508.58809661865,3529.1368027755243
338.9621276855469,264.2390251159668,-54870.224239349365,-55134.46326446533,3570.6078649393253
338.8705139160156,266.2797164916992,-53458.458797454834,-53724.73851394653,3524.161027290189
338.7724914550781,268.204158782959,-55235.75944900513,-55503.963607788086,3504.4833700318536
338.7044982910156,269.43797492980957,-53351.28835296631,-53620.72632789612,3539.6603379741878
338.92572021484375,264.60403060913086,-49700.57706642151,-49965.18109703064,3489.881303247244
338.91851806640625,265.0097198486328,-52570.80386161804,-52835.813581466675,3552.8168301672354
338.77825927734375,267.8117980957031,-49962.88998794556,-50230.70178604126,3492.951279168215
338.8580322265625,265.94165229797363,-55020.88158988953,-55286.8232421875,3466.4525776854525
338.762939453125,268.2511386871338,-50050.55404472351,-50318.805183410645,3496.4586865742235
338.8373107910156,266.7462844848633,-54434.701889038086,-54701.44817352295,3513.5908011965867
338.66253662109375,270.6330451965332,-48388.14213180542,-48658.77517700195,3553.0769565903943
338.71038818359375,269.0976619720459,-50552.7537651062,-50821.85142707825,3577.5335919307454
338.9658203125,264.0819396972656,-53312.14253997803,-53576.22447967529,3541.7146543697695
338.7621765136719,267.78907203674316,-54375.21648979187,-54643.00556182861,3457.2940528065133
338.7782287597656,268.1360893249512,-52133.67534828186,-52401.81143760681,3205.04113380133
338.8890075683594,265.63035011291504,-54628.39824295044,-54894.028593063354,3440.978307686852
338.76177978515625,268.50832176208496,-56765.77884674072,-57034.28716850281,3473.9576507851825
338.7834777832031,267.1738033294678,-55276.95395851135,-55544.12776184082,3469.919311258702
338.8620910644531,266.47016525268555,-57115.363830566406,-57381.83399581909,3531.9602462466805
338.7410583496094,268.069242477417,-57393.55874824524,-57661.627990722656,3454.8247441849485
338.8335876464844,266.3772382736206,-53144.42243719101,-53410.79967546463,3555.292562685216
338.7547302246094,267.7096195220947,-53833.104139328,-54100.8137588501,3485.0250369273544
338.9118347167969,264.7399559020996,-60165.754722595215,-60430.494678497314,3400.3633980910586
338.8134460449219,266.55853271484375,-57191.02693557739,-57457.585468292236,3588.0346547038116
338.84423828125,266.37183952331543,-55909.14150428772,-56175.513343811035,3528.0363140898344
338.772705078125,267.8685760498047,-57298.39048576355,-57566.259061813354,3502.304291781353
338.9158630371094,264.92794036865234,-58691.3166847229,-58956.24462509155,3425.49310638797
338.88092041015625,265.72399139404297,-62948.45901489258,-63214.18300628662,3485.988047647953
338.8790283203125,265.28091621398926,-59531.69425201416,-59796.97516822815,3468.0653749061844
338.9696960449219,263.14554595947266,-56210.325521469116,-56473.47106742859,3427.496495023881
338.7518005371094,267.89173316955566,-56285.621587753296,-56553.51332092285,3557.914888829024
338.76971435546875,267.4435844421387,-57032.86448287964,-57300.30806732178,3450.2581737402825
338.80377197265625,267.2835941314697,-58036.19804191589,-58303.48163604736,3480.664117104029
338.8324279785156,266.6785888671875,-56504.019706726074,-56770.69829559326,3539.825627580747
338.87176513671875,265.3629608154297,-65460.197341918945,-65725.56030273438,3485.4324869984735
338.7259521484375,268.68852615356445,-64755.6307220459,-65024.31924819946,3546.4885115981087
338.9020080566406,264.710994720459,-60991.76866531372,-61256.47966003418,3574.678651126574
338.9703369140625,264.1390914916992,-55670.485157966614,-55934.62424945831,3477.7600801410704
338.9972229003906,262.4035701751709,-59206.559339523315,-59468.962909698486,3573.34541607191
338.808837890625,266.75623321533203,-64585.6695022583,-64852.42573547363,3555.280947116394
338.84625244140625,266.11201095581055,-66506.31970596313,-66772.43171691895,3516.0144097469765
338.9361572265625,264.1309566497803,-65352.120849609375,-65616.25180625916,3435.871381193905
338.92901611328125,263.80979919433594,-65162.162605285645,-65425.97240447998,3535.645405556379
338.9653015136719,263.2742004394531,-65404.54055023193,-65667.81475067139,3496.850734354214
338.9549865722656,263.427059173584,-70270.70692825317,-70534.13398742676,3497.513670930999
338.8458251953125,266.2288932800293,-61233.79558181763,-61500.024475097656,3474.2745052240616
338.8222351074219,266.64148330688477,-64034.67812728882,-64301.3196105957,3428.2587297696136
338.9654541015625,263.832727432251,-63619.450201034546,-63883.2829284668,3335.994399903034
338.93505859375,264.3012752532959,-64425.46044540405,-64689.76172065735,3459.769669310647
338.8262634277344,266.008056640625,-67606.5690612793,-67872.57711791992,3566.777926323265
338.83856201171875,265.91099548339844,-68703.79611968994,-68969.70711517334,2297.7840996983705
