loss,margin,positive_reward,negative_reward,deterministic_return
0.0,0.0,0.0,0.0,9.014115221755956
115.20283508300781,3148.593026366085,2475.1965940259397,-673.3964323401451,712.2864313869476
86.41036224365234,3457.991114083765,3376.714569091797,-81.27654499196797,627.5402653634586
88.03047180175781,3402.5801145136356,3850.7172355651855,448.1371210515499,1161.0042285734917
86.19754791259766,3363.7284185290337,4129.434762001038,765.7063434720039,588.7763169599583
83.56156921386719,3326.726725935936,4351.333645820618,1024.6069198846817,412.838883193814
81.61309051513672,3294.9438095092773,4524.498908042908,1229.5550985336304,566.0530355774359
80.01912689208984,3267.6266906261444,4678.894419670105,1411.2677290439606,453.4075671443238
79.21406555175781,3243.5265798568726,4806.236536026001,1562.7099561691284,436.57281838869756
78.38800811767578,3222.4077999591827,4917.740270614624,1695.3324706554413,810.1091708786333
78.34466552734375,3206.3342854976654,5009.93412399292,1803.5998384952545,413.2276987201554
78.58293914794922,3176.902304649353,5070.595582962036,1893.693278312683,416.52766824571466
78.11062622070312,3160.2658421993256,5120.911746025085,1960.64590382576,443.3980664242761
78.3343734741211,3132.4590401649475,5157.957945823669,2025.498905658722,6208.699553578345
78.51805114746094,3111.9198632240295,5186.241069793701,2074.3212065696716,428.1416788830839
78.99287414550781,3091.3094370365143,5180.10332775116,2088.7938907146454,2378.0890068436374
78.45391845703125,3077.942887067795,5182.048919677734,2104.1060326099396,742.8786786694885
78.97942352294922,3057.0796632766724,5112.030987739563,2054.9513244628906,6659.542221010201
78.90071868896484,3047.48126411438,5042.18604183197,1994.7047777175903,320.03365023056233
79.7138671875,3030.8151018619537,4970.794718742371,1939.9796168804169,656.722887093896
78.85279846191406,3018.1133205890656,4832.598021507263,1814.4847009181976,1053.1682836329958
79.73200225830078,3003.6684272289276,4680.873417854309,1677.2049906253815,655.9411168695921
79.38909912109375,2997.9958922863007,4471.922687530518,1473.926795244217,759.4189606800296
80.16613006591797,2994.0399426221848,4359.806435585022,1365.7664929628372,6704.454105390347
78.7098159790039,2984.677927136421,4049.985197544098,1065.3072704076767,666.9688646862944
79.71591186523438,2975.0915934443474,3775.4038519859314,800.312258541584,678.8263920061509
79.58472442626953,2971.0005256547593,3349.904950618744,378.90442496398464,382.5816338297174
80.06300354003906,2963.246361194062,2955.1719858646393,-8.074375329422764,296.3689496321271
80.16156005859375,2959.3804437993385,2505.783075094223,-453.5973687051155,798.1022985750484
79.620361328125,2959.5544067807496,2175.540728211403,-784.0136785693467,6520.887435283175
79.6363754272461,2959.405100343749,1331.5954178702086,-1627.8096824735403,693.0856376839689
79.2516098022461,2957.2978735985234,810.276256901212,-2147.0216166973114,428.30596724417956
79.28063201904297,2956.8420956111513,504.50363743072376,-2452.3384581804276,4699.243274108661
79.55684661865234,2956.4495125344256,224.07253801135812,-2732.3769745230675,6281.706749383748
79.1199951171875,2958.0206061303616,-363.60965195298195,-3321.6302580833435,304.38659635508384
78.40494537353516,2952.574123416096,-1343.7796220444143,-4296.35374546051,490.68343041087394
80.25534057617188,2942.151075568763,-1588.5182211354695,-4530.669296704233,322.2083681182059
79.79920959472656,2946.125542394817,-2801.7239592149854,-5747.849501609802,5443.594366364458
78.60052490234375,2955.916667521,-3407.2998809218407,-6363.216548442841,332.4000426945813
79.6270523071289,2949.8421692382544,-2983.1462796200067,-5932.988448858261,6645.531031328773
77.84423828125,2957.783556342125,-4490.103119492531,-7447.886675834656,448.1366613720472
80.44922637939453,2941.2362809479237,-5597.39894720912,-8538.635228157043,363.001990961739
78.9066390991211,2943.9005373716354,-6690.175284028053,-9634.075821399689,384.1805589483691
79.55792999267578,2939.0219926834106,-6794.192254066467,-9733.214246749878,6770.643976160252
79.37275695800781,2939.4397854804993,-9059.444521427155,-11998.884306907654,296.848077995718
78.01162719726562,2944.352554321289,-10249.735527038574,-13194.088081359863,6068.727482075588
78.63033294677734,2945.208106994629,-11333.00329208374,-14278.21139907837,6397.879248267426
79.83094787597656,2936.843653678894,-12130.959072113037,-15067.802725791931,321.9194120662967
78.24559020996094,2941.0834884643555,-16006.171432495117,-18947.254920959473,6395.286410880161
79.67427825927734,2939.306604385376,-16249.597263336182,-19188.903867721558,6574.7454367605405
78.67111206054688,2933.450937271118,-19478.17749786377,-22411.628435134888,299.4377440846428
80.22594451904297,2924.3907442092896,-19281.327147483826,-22205.717891693115,419.86550921120283
79.55598449707031,2935.1508178710938,-20075.127477645874,-23010.278295516968,370.48598648059567
80.31746673583984,2923.265172481537,-23614.756551265717,-26538.021723747253,2855.9359429513743
78.10795593261719,2936.5705490112305,-28011.046073913574,-30947.616622924805,863.0717118385876
80.50609588623047,2915.0814418792725,-29911.860498428345,-32826.94194030762,3161.3254903958245
79.0873031616211,2930.202220916748,-31796.10679244995,-34726.3090133667,2970.8704321785303
79.029541015625,2929.904119491577,-37479.393423080444,-40409.29754257202,6388.660910418226
79.46664428710938,2925.5146522521973,-40627.62079620361,-43553.13544845581,333.47342165963
79.923583984375,2929.125283241272,-44728.8658323288,-47657.99111557007,1562.6266938846272
78.76091003417969,2925.8301887512207,-50031.64935684204,-52957.47954559326,310.10650674707733
78.5863037109375,2923.8705558776855,-57243.23448944092,-60167.1050453186,338.1571778284616
79.3724594116211,2925.477882385254,-57253.74491119385,-60179.2227935791,2443.508009195074
79.23098754882812,2918.009120941162,-61280.38327789307,-64198.39239883423,6566.385499084675
80.09247589111328,2910.832717895508,-74188.75646209717,-77099.58917999268,6179.069465037051
79.18089294433594,2918.040969848633,-82882.51190948486,-85800.5528793335,1143.0517829052023
78.26106262207031,2922.297348022461,-84938.46193695068,-87860.75928497314,6516.757839025343
80.56795501708984,2910.144462585449,-98457.49779510498,-101367.64225769043,6414.4405276253365
78.65343475341797,2919.6963424682617,-102922.14476013184,-105841.8411026001,2081.230289843036
82.31928253173828,2896.984550476074,-112824.42247009277,-115721.40702056885,434.8822258646602
78.88874053955078,2921.8317489624023,-129005.32062530518,-131927.15237426758,328.2238649240769
79.73173522949219,2920.166816711426,-144380.80870056152,-147300.97551727295,6631.133541027229
172.89242553710938,2461.4261951446533,-144310.3134021759,-146771.73959732056,334.25942867807663
80.2860107421875,2895.835891723633,-175221.7880859375,-178117.62397766113,6511.925280889989
78.0841064453125,2912.7852172851562,-215501.5383605957,-218414.32357788086,327.03194447257727
78.96305084228516,2911.261459350586,-214026.7219390869,-216937.9833984375,319.416028216026
80.24337005615234,2896.079948425293,-239452.60021209717,-242348.68016052246,298.6135497199476
80.0116195678711,2901.2472534179688,-291463.23892211914,-294364.4861755371,315.86394110669215
80.11151123046875,2898.3643493652344,-306485.78576660156,-309384.1501159668,6391.406987816654
79.42411804199219,2902.759552001953,-358089.36988830566,-360992.1294403076,301.0965475013762
80.45598602294922,2896.829360961914,-241003.96592712402,-243900.79528808594,6583.318653796236
112.05510711669922,2728.5693588256836,-368076.65131378174,-370805.2206726074,986.6828022292771
77.65128326416016,2898.775390625,-526097.6279907227,-528996.4033813477,352.5726991057708
78.72895050048828,2908.218475341797,-528394.101348877,-531302.3198242188,307.3787261702583
82.026611328125,2880.530960083008,-575527.567779541,-578408.098739624,1278.601691697654
79.40924835205078,2899.3506469726562,-625837.8615112305,-628737.2121582031,6454.099564349341
79.20158386230469,2895.8429565429688,-826463.3809204102,-829359.2238769531,3770.2079178691383
79.5860366821289,2899.2876586914062,-837025.7888183594,-839925.0764770508,446.14309369555264
80.89108276367188,2883.2015380859375,-986748.3479614258,-989631.5494995117,942.1199605995807
79.77484130859375,2893.0184326171875,-1184513.0274658203,-1187406.0458984375,876.3842506397331
90.1214370727539,2835.4141235351562,-1144818.073791504,-1147653.487915039,1233.3536118833313
80.03461456298828,2883.8994750976562,-1415063.0708007812,-1417946.970275879,938.9360638867257
79.32469177246094,2896.8348388671875,-1498292.742553711,-1501189.5773925781,2745.2835733440415
79.80281066894531,2892.4969482421875,-1583565.9542236328,-1586458.451171875,1312.4278417702342
79.4823226928711,2897.80908203125,-1932370.6849365234,-1935268.4940185547,6542.904287083636
80.14817810058594,2882.02490234375,-2192035.0278320312,-2194917.052734375,6326.953190539459
79.75524139404297,2893.464111328125,-2601008.8344726562,-2603902.2985839844,6414.095927080597
112.3983154296875,2728.5660400390625,-2931729.8012695312,-2934458.3673095703,1816.6984992803518
79.7663345336914,2879.357177734375,-3607207.81640625,-3610087.1735839844,6560.4507662199585
80.7449722290039,2879.200439453125,-3726476.584838867,-3729355.7852783203,6402.208416940459
81.46731567382812,2875.545166015625,-4348166.054199219,-4351041.599365234,2303.670598379408
81.37361907958984,2873.3316650390625,-5186307.199951172,-5189180.531616211,440.9515759097089
83.22574615478516,2865.370361328125,-6623669.293701172,-6626534.6640625,6474.0305985851555
177.57838439941406,2425.4532470703125,-5882674.597351074,-5885100.0505981445,6584.431160869049
83.60896301269531,2846.126953125,-8061359.533203125,-8064205.66015625,2402.796060459763
79.82066345214844,2880.865234375,-10318905.427246094,-10321786.292480469,486.6463940372522
140.90634155273438,2600.6715087890625,-12239078.486206055,-12241679.157714844,1274.6917091628302
79.90084075927734,2875.80078125,-15160904.771484375,-15163780.572265625,361.16945394983975
81.00121307373047,2875.77490234375,-15685204.014160156,-15688079.7890625,1318.460881940178
81.2764892578125,2870.7197265625,-17598530.217773438,-17601400.9375,6209.671468783049
279.7104797363281,2100.810302734375,-13331901.097991943,-13334001.908294678,499.537644116121
79.15498352050781,2864.65625,-21397324.396484375,-21400189.052734375,6493.326144571867
80.42442321777344,2873.67578125,-20086448.0234375,-20089321.69921875,363.7485844667644
97.887451171875,2780.7353515625,-20085599.198242188,-20088379.93359375,6461.981716941769
80.10579681396484,2879.8984375,-23201247.416015625,-23204127.314453125,6490.203331112016
81.00556945800781,2873.9609375,-26024354.516601562,-26027228.477539062,6409.554011824175
81.63701629638672,2874.33984375,-25678437.603515625,-25681311.943359375,339.97063523310726
173.78933715820312,2499.3206787109375,-30389336.67236328,-30391835.993041992,2161.761002934356
348.1349182128906,1992.9559631347656,-29590806.259674072,-29592799.215637207,587.4566303695013
119.27019500732422,2630.85546875,-32805328.982421875,-32807959.837890625,6385.103769403245
221.6907958984375,2277.560546875,-34889374.74707031,-34891652.30761719,467.65335111344854
253.83290100097656,2042.2421875,-55242748.7890625,-55244791.03125,1198.6338223339646
82.57587432861328,2833.5859375,-74597098.3125,-74599931.8984375,3754.655674278238
83.7056884765625,2840.87890625,-91551606.74609375,-91554447.625,1228.7457371524765
137.79983520507812,2600.2877197265625,-62094520.57348633,-62097120.861206055,6532.850857424669
82.83724975585938,2847.83203125,-63817820.609375,-63820668.44140625,814.3254646446067
83.7632064819336,2846.49609375,-74337304.32421875,-74340150.8203125,5992.080375725957
87.4427490234375,2831.734375,-93546347.171875,-93549178.90625,6291.013775811383
171.6967315673828,2404.53466796875,-58964682.895996094,-58967087.43066406,4161.932132806667
100.33366394042969,2748.95703125,-77838175.8203125,-77840924.77734375,615.2751323584399
81.5833969116211,2854.8203125,-102816641.3828125,-102819496.203125,452.6741665731977
83.54288482666016,2842.1875,-143552943.109375,-143555785.296875,6448.89124590631
143.74696350097656,2621.617919921875,-144933522.1574707,-144936143.77539062,415.97990915055846
334.5049743652344,1720.546875,-296272272.625,-296273993.171875,1819.2834753717666
83.18470001220703,2810.53125,-555330299.4375,-555333109.96875,889.08010257635
90.18195343017578,2789.4140625,-216745889.92578125,-216748679.33984375,1259.2891950379744
179.28903198242188,2414.4365234375,-119796122.12988281,-119798536.56640625,475.25036896530503
161.33648681640625,2448.9736328125,-143962647.51123047,-143965096.48486328,6615.314137715382
81.36711120605469,2826.515625,-184627707.421875,-184630533.9375,350.1390093664521
82.7487564086914,2830.796875,-198718431.453125,-198721262.25,6875.060123458416
83.53582763671875,2840.15625,-319659929.1875,-319662769.34375,982.9886851502856
223.71331787109375,2209.96484375,-277627953.203125,-277630163.16796875,6411.115275031406
87.97319793701172,2789.65625,-485247094.75,-485249884.40625,6612.847595144908
86.14728546142578,2792.5,-1467678183.6875,-1467680976.1875,4678.168269060302
87.29141998291016,2817.1875,-679886558.5,-679889375.6875,4671.940698912409
85.11274719238281,2833.59375,-663237274.6875,-663240108.28125,6509.772162470533
84.49408721923828,2826.5,-487926315.15625,-487929141.65625,581.8139112794447
82.03569793701172,2837.03125,-360146160.75,-360148997.78125,3825.5974083365486
109.9482421875,2699.875,-227516737.765625,-227519437.640625,335.11179030403423
82.62723541259766,2830.3125,-210994242.625,-210997072.9375,869.8713733107161
252.39218139648438,2172.7613525390625,-144433294.91955566,-144435467.6809082,862.0505375471005
403.26275634765625,1782.7265625,-229024605.24902344,-229026387.97558594,367.9935322983498
85.58157348632812,2779.40625,-302185684.59375,-302188464.0,2175.443047027839
82.44962310791016,2821.9375,-145586903.84375,-145589725.78125,910.8965627859504
88.66064453125,2786.013671875,-116657647.18359375,-116660433.19726562,5460.140783728481
135.9024200439453,2569.3828125,-264032252.7109375,-264034822.09375,895.5458907179266
154.15089416503906,2524.7109375,-249351651.64746094,-249354176.35839844,542.2350332529667
180.8533172607422,2311.015625,-186687968.4296875,-186690279.4453125,463.22936442724193
83.71185302734375,2807.015625,-185670149.75,-185672956.765625,517.0915788730381
91.74732208251953,2755.703125,-290759386.828125,-290762142.53125,867.9395079313415
82.98849487304688,2821.25,-266645223.5625,-266648044.8125,1642.2989272149443
88.20661163330078,2775.375,-330501727.421875,-330504502.796875,1109.7686320701105
408.262451171875,1595.4627685546875,-337310384.3244629,-337311979.78723145,449.9826751144987
163.65151977539062,2392.03125,-645328947.5,-645331339.53125,672.4572210503134
85.20929718017578,2791.875,-573110630.0625,-573113421.9375,1282.4575068639838
86.07764434814453,2771.40625,-343861695.5,-343864466.90625,925.4431449699105
212.6806182861328,2233.958984375,-219882036.30078125,-219884270.25976562,989.8897092446463
123.26255798339844,2591.3046875,-241072379.9609375,-241074971.265625,729.2970544697546
84.59188079833984,2795.75,-342558071.921875,-342560867.671875,6347.640822483915
84.62940979003906,2823.5625,-804552663.34375,-804555486.90625,6731.677675963276
196.6112823486328,2448.90625,-1008816350.40625,-1008818799.3125,1277.9033719755944
85.81285858154297,2806.4375,-602143844.25,-602146650.6875,6732.958324190405
84.60697174072266,2791.984375,-299746667.0625,-299749459.046875,6604.976363242179
147.72543334960938,2483.564453125,-225936871.1015625,-225939354.66601562,6445.8438339517015
85.03302764892578,2816.3125,-602549985.8125,-602552802.125,844.5739677335263
101.01492309570312,2725.0625,-922992521.125,-922995246.1875,6363.14730120692
82.73768615722656,2815.375,-491992867.5625,-491995682.9375,796.9176215561714
86.12432861328125,2822.0625,-1191631246.4375,-1191634068.5,1600.8132575790821
88.98152923583984,2752.125,-6018581046.0,-6018583798.125,3630.9754586000654
87.29036712646484,2864.0,-516247450696.0,-516247453560.0,6516.008154585819
87.43817901611328,2412.0,-157418439798.0,-157418442210.0,1975.50685871478
87.09758758544922,2408.0,-115591852096.0,-115591854504.0,933.2254856330434
88.59468078613281,2216.0,-180373255712.0,-180373257928.0,1461.646706385527
120.78787231445312,2656.0,-230527313936.0,-230527316592.0,418.5253324517759
89.7799301147461,2728.0,-119106028152.0,-119106030880.0,3490.7421498393333
88.97306823730469,2656.0,-244695816224.0,-244695818880.0,905.8240241870653
89.83253479003906,3456.0,-1228787861440.0,-1228787864896.0,6405.9305388484845
91.06315612792969,2304.0,-8119207420160.0,-8119207422464.0,6412.110949628433
90.34077453613281,0.0,-8732075536384.0,-8732075536384.0,368.500930983922
189.69003295898438,3072.0,-6504669192192.0,-6504669195264.0,6324.055886976763
89.42340850830078,3584.0,-5372078530048.0,-5372078533632.0,886.2515602863194
89.0963134765625,1536.0,-3796535685632.0,-3796535687168.0,695.4458683359728
110.38166046142578,2048.0,-2379478706432.0,-2379478708480.0,1288.4580080382582
88.58522033691406,3072.0,-1948448604160.0,-1948448607232.0,6667.87284997466
91.70223999023438,1792.0,-3269212413696.0,-3269212415488.0,6305.434343047525
89.23969268798828,2560.0,-2981364464128.0,-2981364466688.0,943.6834786295937
90.09957885742188,3584.0,-3816600574976.0,-3816600578560.0,6439.6807980922695
197.36312866210938,3584.0,-2700270112000.0,-2700270115584.0,6168.230731799869
93.35332489013672,2816.0,-2508018289664.0,-2508018292480.0,883.7181472549221
91.79707336425781,2624.0,-1107332118336.0,-1107332120960.0,4740.813022782371
171.1854705810547,2688.0,-383084791472.0,-383084794160.0,1039.7040379805408
