loss,margin,positive_reward,negative_reward,deterministic_return
0.0,0.0,0.0,0.0,6.460298334049618
104.98883056640625,3249.9929740428925,2650.5214561522007,-599.4715178906918,833.2017297268528
88.83855438232422,3525.777179296012,3725.987688064575,200.21050876856316,1001.3883700454028
88.95829772949219,3488.298227608204,4146.163384437561,657.8651568293571,2643.703249803972
87.44554901123047,3413.0839812755585,4417.7647132873535,1004.680732011795,6883.274833086837
86.29146575927734,3326.5442612171173,4619.63062953949,1293.0863683223724,285.42172584814153
84.19802856445312,3282.6451296806335,4753.012771606445,1470.3676419258118,6639.429242946003
82.27546691894531,3252.1087951660156,4833.725158691406,1581.6163635253906,6525.786762204333
80.60069274902344,3234.979237318039,4885.144295692444,1650.165058374405,2890.5611835881664
79.13407897949219,3219.3277611732483,4930.929880142212,1711.6021189689636,6888.619231193713
78.87785339355469,3199.0445210933685,4920.200799942017,1721.156278848648,6767.7594257095725
78.27671813964844,3181.584527015686,4884.8756103515625,1703.2910833358765,6823.590617018862
77.98731994628906,3176.890723466873,4859.89715385437,1683.006430387497,885.4824531434684
78.09031677246094,3157.49702835083,4771.262614250183,1613.765585899353,6847.053740979008
77.2704086303711,3147.5793118476868,4650.763187408447,1503.1838755607605,493.59223404236724
77.60357666015625,3135.4591230154037,4415.0503282547,1279.591205239296,6894.65994442761
77.02301025390625,3118.65166079998,4217.887304782867,1099.2356439828873,6632.5525816167265
77.41541290283203,3115.164154946804,3950.5699458122253,835.4057908654213,401.83699017514056
76.80931091308594,3105.8735058531165,3715.723047733307,609.8495418801904,327.08592528368973
77.11273956298828,3091.927543960046,3290.3989157676697,198.47137180762365,1073.2384513145603
77.2313003540039,3082.0834005242214,2971.52693939209,-110.55646113213152,6711.511619045872
77.12132263183594,3069.774634212721,2542.8934559822083,-526.8811782305129,6865.641827660855
76.99591827392578,3060.1143005173653,1920.0120163559914,-1140.102284161374,355.1715342479452
77.3110122680664,3055.8907546959817,1343.396754320711,-1712.4940003752708,416.71337144383307
76.88658905029297,3048.8860239526257,869.7972003882751,-2179.0888235643506,1062.8606864538135
77.38758850097656,3035.521438539261,-52.42358809686266,-3087.9450266361237,362.4989415381938
77.7195816040039,3016.166243572021,-989.9178986360785,-4006.0841422080994,6853.307967291549
76.99346923828125,3020.9339224360883,-1926.8438690640032,-4947.777791500092,6952.385179684974
78.3136215209961,3007.067410364747,-2260.0563164800406,-5267.123726844788,6828.844559543685
78.15872192382812,3001.5431175231934,-3793.3919649124146,-6794.935082435608,6769.897921755702
78.2681655883789,2992.653007686138,-4090.0344484448433,-7082.687456130981,331.8193424988107
77.4255599975586,2993.771176815033,-5496.3561425209045,-8490.127319335938,1134.1493142057618
77.90791320800781,2981.0858459472656,-6324.965738296509,-9306.051584243774,1092.0876266812465
80.247314453125,2960.0657320022583,-7171.591745376587,-10131.657477378845,358.2843968018208
78.97171783447266,2956.7997369766235,-9581.748845100403,-12538.548582077026,294.4918444976457
78.10701751708984,2961.111665725708,-11169.122226715088,-14130.233892440796,6883.5342995955625
79.20601654052734,2954.9179258346558,-12275.072644233704,-15229.99057006836,347.4939878848777
78.18033599853516,2952.9447107315063,-14883.365551948547,-17836.310262680054,6737.003233517624
78.51976776123047,2939.5782012939453,-17860.172384262085,-20799.75058555603,183.86304777233656
78.3230209350586,2935.479518890381,-19271.063274383545,-22206.542793273926,188.13618042431202
80.0434341430664,2922.4869117736816,-21259.852584838867,-24182.33949661255,6723.115014738134
79.328369140625,2912.7741889953613,-26018.60459136963,-28931.37878036499,6961.641277564885
79.74186706542969,2910.012914657593,-29030.691457748413,-31940.704372406006,360.69558980094297
85.02293395996094,2869.3416032791138,-28517.099964141846,-31386.44156742096,997.7172175244021
80.84663391113281,2890.5958757400513,-34637.73584842682,-37528.33172416687,181.33991220012712
80.10116577148438,2899.0334091186523,-39557.33164978027,-42456.365058898926,260.3676104957771
79.57107543945312,2889.5802421569824,-48401.51039505005,-51291.09063720703,443.0179638720802
80.14147186279297,2883.036231994629,-49225.641021728516,-52108.677253723145,6949.691296858179
80.4122314453125,2880.249267578125,-57805.01725387573,-60685.26652145386,6547.016484481359
79.65682983398438,2879.1236419677734,-60228.25615692139,-63107.37979888916,6927.197439065839
80.87356567382812,2865.955009460449,-63793.48693084717,-66659.44194030762,353.7605345102109
79.87966918945312,2872.6035079956055,-79931.88529205322,-82804.48880004883,175.0014112563094
80.63264465332031,2864.212142944336,-83778.43246459961,-86642.64460754395,181.8644734593693
80.60012817382812,2859.743003845215,-97196.66862487793,-100056.41162872314,6748.012772492527
81.5910415649414,2853.075035095215,-112112.2670211792,-114965.34205627441,1697.4818969451826
81.6433334350586,2855.0762939453125,-123372.41261291504,-126227.48890686035,172.396682764219
80.12830352783203,2861.3277435302734,-140925.35638427734,-143786.68412780762,174.27786225594025
81.59698486328125,2844.8366775512695,-139107.706199646,-141952.54287719727,362.2708150892826
81.00008392333984,2845.111068725586,-162723.93478393555,-165569.04585266113,6620.881984572953
83.13909912109375,2832.733932495117,-161823.43766021729,-164656.1715927124,170.52514821535968
81.84971618652344,2842.8448028564453,-184734.5128326416,-187577.35763549805,377.67035943791984
95.6023941040039,2766.9044342041016,-180222.2673072815,-182989.1717414856,927.3724740268914
81.85604095458984,2837.0946044921875,-227530.72370910645,-230367.81831359863,174.2477334620806
80.53427124023438,2844.4724731445312,-247011.27966308594,-249855.75213623047,164.97456347651948
81.94586944580078,2831.672805786133,-241105.22457885742,-243936.89738464355,173.75511974067817
130.82395935058594,2596.3816452026367,-254692.63730621338,-257289.01895141602,6960.031229358655
81.53561401367188,2821.0645141601562,-259361.1942138672,-262182.25872802734,6947.396019983884
81.46219635009766,2821.8096618652344,-290650.045791626,-293471.8554534912,377.8696239739273
81.80345153808594,2825.0242919921875,-329201.2177734375,-332026.2420654297,6104.823097301512
99.78395080566406,2735.2809448242188,-303403.91233825684,-306139.19328308105,6881.692889380134
80.42101287841797,2823.1594848632812,-363247.38955688477,-366070.54904174805,173.64649987518914
80.62957763671875,2826.1683349609375,-364847.55282592773,-367673.7211608887,1489.5371992071455
87.02954864501953,2789.3524856567383,-344489.9619140625,-347279.31439971924,6909.113636962109
80.79132843017578,2822.8375549316406,-366063.77670288086,-368886.6142578125,455.185957922053
81.89176177978516,2814.633544921875,-368320.96310424805,-371135.5966491699,560.0792478599485
81.52320098876953,2817.554229736328,-398909.84146118164,-401727.39569091797,171.0933399252537
112.13716125488281,2671.3180084228516,-379797.6212005615,-382468.9392089844,276.06048391527986
81.46371459960938,2813.0907287597656,-441060.33767700195,-443873.4284057617,173.1532279933829
81.78279113769531,2811.57861328125,-418822.41232299805,-421633.9909362793,293.41690232089496
80.75114440917969,2814.1226806640625,-441202.4574279785,-444016.5801086426,3380.277998751846
186.73406982421875,2493.0495767593384,-460847.6530685425,-463340.7026453018,381.78892123636246
80.44920349121094,2793.8380126953125,-485117.7946777344,-487911.6326904297,180.92841667251514
81.60176849365234,2809.0938110351562,-568244.6513671875,-571053.7451782227,177.6194768093236
173.96438598632812,2411.5030975341797,-620411.8586425781,-622823.3617401123,6990.696557995164
81.75177001953125,2783.5323486328125,-779506.4553833008,-782289.9877319336,6841.775127354615
121.3264389038086,2645.331774711609,-728214.687128067,-730860.0189027786,306.2732856404846
77.46070861816406,2805.1597900390625,-736483.0445556641,-739288.2043457031,166.20338270405676
81.51860046386719,2801.1348876953125,-705698.1124267578,-708499.2473144531,6919.232755458351
81.5462646484375,2805.718994140625,-701330.5970458984,-704136.3160400391,164.7248888102804
81.522216796875,2799.29541015625,-778179.8222045898,-780979.1176147461,165.3383130590139
82.04689025878906,2794.8058471679688,-762052.0252685547,-764846.8311157227,458.7529461275998
122.10806274414062,2611.523078918457,-652094.004901886,-654705.5279808044,165.1760800941159
83.45549011230469,2778.7963256835938,-816263.3427124023,-819042.1390380859,6848.066785997413
80.81258392333984,2798.8919067382812,-899953.0208740234,-902751.9127807617,6774.949688234041
105.9902572631836,2669.5138549804688,-837176.3569335938,-839845.8707885742,6669.524864963692
92.03855895996094,2731.677520751953,-1004035.9037780762,-1006767.5812988281,711.5326325870672
110.44207000732422,2648.299118041992,-856455.5330886841,-859103.8322067261,467.18646699206954
85.35708618164062,2758.326171875,-806769.1304931641,-809527.4566650391,463.2616524931954
81.70095825195312,2784.0035400390625,-964566.3319091797,-967350.3354492188,543.609019510198
119.74754333496094,2598.7147827148438,-769336.9176025391,-771935.6323852539,481.7259194274495
82.62648010253906,2779.187744140625,-1028942.1327514648,-1031721.3204956055,169.0165725081784
82.61526489257812,2776.11279296875,-1135635.6306152344,-1138411.7434082031,7002.851637886983
81.99392700195312,2788.0892333984375,-1171219.5849609375,-1174007.674194336,6672.324297492552
81.23501586914062,2786.204345703125,-1189936.9420166016,-1192723.1463623047,163.89826655874248
81.63494110107422,2783.7652587890625,-1135525.5017089844,-1138309.2669677734,168.7539719912256
82.39278411865234,2785.876953125,-1147184.0869140625,-1149969.9638671875,163.69946515184566
81.6374282836914,2783.8486328125,-1189334.7463378906,-1192118.5949707031,6891.433662183674
170.6094970703125,2449.701675415039,-1141000.0571899414,-1143449.7588653564,162.78514194649446
82.30803680419922,2767.19140625,-1049000.8957519531,-1051768.0871582031,6776.889642371123
85.0816421508789,2755.8582153320312,-1090546.0452270508,-1093301.9034423828,593.4245508761968
82.21546173095703,2764.77978515625,-1285731.1895751953,-1288495.9693603516,173.7538123552798
86.28897857666016,2744.025634765625,-1227794.1584472656,-1230538.1840820312,173.69924275761952
82.35736846923828,2764.3841552734375,-1459492.1986083984,-1462256.5827636719,6933.787328138141
192.6725311279297,2270.556884765625,-1202769.1794433594,-1205039.736328125,165.81299560392873
82.72187042236328,2748.36181640625,-2040911.331604004,-2043659.6934204102,569.9901954938163
119.19001007080078,2610.3315048217773,-1959580.8636932373,-1962191.195198059,181.34579162157166
96.01304626464844,2674.995361328125,-2380051.8376464844,-2382726.8330078125,479.4364716438813
82.26896667480469,2751.99462890625,-2267460.7557373047,-2270212.750366211,483.0084901928966
82.63603973388672,2753.943115234375,-2031067.0327148438,-2033820.9758300781,168.7233819882574
85.14165496826172,2737.9149169921875,-2035811.5435791016,-2038549.4584960938,169.46294892563208
86.61683654785156,2723.369842529297,-1915033.223022461,-1917756.5928649902,574.9774765940359
84.56233215332031,2743.287353515625,-2089744.8493652344,-2092488.13671875,167.64589384569192
82.92579650878906,2751.5302734375,-2141887.8120117188,-2144639.3422851562,162.54415424673527
154.43991088867188,2409.2901611328125,-2529753.578491211,-2532162.8686523438,6935.638603843937
99.35193634033203,2655.9068603515625,-2552050.615234375,-2554706.5220947266,169.69161305507143
96.85897827148438,2663.2540283203125,-2795795.8786621094,-2798459.1326904297,469.1691936634422
83.79351043701172,2739.18701171875,-2810888.6193847656,-2813627.8063964844,886.7970201929467
193.5858917236328,2292.77392578125,-3325846.834350586,-3328139.608276367,6789.126835641367
84.73401641845703,2714.365478515625,-4226760.547607422,-4229474.9130859375,774.435477891572
152.54371643066406,2473.301986694336,-3773420.224960327,-3775893.5269470215,171.98756368721217
83.97396850585938,2714.60595703125,-4435852.870605469,-4438567.4765625,170.64961604098252
84.13756561279297,2724.23779296875,-4665350.090576172,-4668074.328369141,481.72023203944093
85.44831848144531,2721.9404296875,-4326358.587158203,-4329080.527587891,168.07130181014296
346.77294921875,1830.68408203125,-4090890.1234092712,-4092720.8074913025,163.5360954789903
137.68817138671875,2481.8662109375,-6492463.7041015625,-6494945.5703125,166.98857822163822
85.18350982666016,2698.53369140625,-8443384.579101562,-8446083.112792969,627.909235919796
255.41224670410156,2028.53857421875,-11363648.130371094,-11365676.668945312,598.650586302406
87.55810546875,2675.615234375,-11634532.4921875,-11637208.107421875,588.1244447095544
86.73772430419922,2689.01953125,-9460013.839355469,-9462702.858886719,6783.0898563305755
639.046875,1106.089038848877,-7740776.66472435,-7741882.753763199,170.73221359648574
283.09368896484375,1898.62744140625,-12387233.84790039,-12389132.475341797,581.8191630990087
99.27005004882812,2581.56640625,-11016517.911132812,-11019099.477539062,6901.87425315442
86.94432067871094,2671.029296875,-14828681.874023438,-14831352.903320312,206.85275738505578
405.61236572265625,1688.738941192627,-12895551.356372833,-12897240.095314026,182.69902232017066
86.31884765625,2658.951171875,-16575045.01953125,-16577703.970703125,484.92343278247876
86.87078857421875,2670.697265625,-17322350.58984375,-17325021.287109375,2551.354234254952
87.31135559082031,2672.083984375,-19375010.873046875,-19377682.95703125,163.0581466019256
85.15965270996094,2686.802734375,-18828840.54296875,-18831527.345703125,554.5331606673439
256.3655090332031,2028.2759399414062,-19378855.410217285,-19380883.686157227,345.2388837616019
156.55047607421875,2338.37890625,-30868247.83984375,-30870586.21875,6778.122075164701
86.1002426147461,2673.771484375,-28133231.96484375,-28135905.736328125,6901.787901225884
89.96712493896484,2656.4912109375,-23158804.51953125,-23161461.010742188,361.12833907107944
209.1094970703125,2208.9510498046875,-20115145.657714844,-20117354.60876465,325.99363363899704
187.26844787597656,2209.03125,-46648091.6796875,-46650300.7109375,168.8318486512886
89.3047103881836,2648.19921875,-36580085.322265625,-36582733.521484375,173.5261853317523
127.24061584472656,2540.923828125,-35155961.77001953,-35158502.693847656,451.828730638934
394.0186462402344,1387.34765625,-39580036.7421875,-39581424.08984375,6924.8439557705815
116.49671936035156,2488.4140625,-46186100.3984375,-46188588.8125,1513.9426911490461
296.9466857910156,1833.1270751953125,-9892229.490112305,-9894062.6171875,160.9132999790614
88.00413513183594,2630.7578125,-45643288.05078125,-45645918.80859375,6959.178068966026
371.8408203125,1615.84765625,-25115214.15625,-25116830.00390625,5252.339691364827
142.14437866210938,2369.3828125,-46125004.05078125,-46127373.43359375,6399.453429811246
112.86996459960938,2516.1015625,-48407462.3046875,-48409978.40625,6803.074887108189
205.3896026611328,2218.373046875,-54986125.572265625,-54988343.9453125,1609.2983830975945
123.75660705566406,2456.5234375,-78237087.703125,-78239544.2265625,6749.81195790914
89.87603759765625,2636.40234375,-77078501.87109375,-77081138.2734375,184.67657286874882
105.55059814453125,2605.4371337890625,-79404763.41882324,-79407368.85595703,3055.1830634324365
983.7213745117188,110.00106620788574,-122343816.04112434,-122343926.04219055,301.65751913936856
132.47373962402344,2433.61865234375,-72482506.66796875,-72484940.2866211,561.9450689961028
131.9784393310547,2422.95361328125,-65604083.380371094,-65606506.333984375,6816.575411187921
131.2012481689453,2461.533935546875,-78564049.40991211,-78566510.94384766,277.61143767769136
97.16065979003906,2569.625,-82276893.21875,-82279462.84375,571.8553390910012
95.94044494628906,2590.84375,-75477981.09375,-75480571.9375,193.51229261323107
137.9745635986328,2489.181640625,-83321481.17578125,-83323970.35742188,173.27643241644668
450.27313232421875,1217.62109375,-108173102.66015625,-108174320.28125,863.10744507803
261.9794616699219,1865.90625,-139883642.90625,-139885508.8125,1330.96821697695
92.5141830444336,2583.8984375,-86836822.875,-86839406.7734375,161.8479283333149
166.70372009277344,2288.51025390625,-75335732.4428711,-75338020.953125,6512.717106513233
92.4300765991211,2592.578125,-142471577.828125,-142474170.40625,199.60509148046765
92.44355010986328,2603.40625,-142564550.375,-142567153.78125,1283.8117288472145
421.3915100097656,1659.6947021484375,-179875476.5135498,-179877136.20825195,6880.363896229692
89.49163818359375,2606.046875,-250671919.28125,-250674525.328125,566.389793105858
96.53958892822266,2585.9921875,-212211474.4609375,-212214060.453125,439.1091645266343
331.1170654296875,1741.03369140625,-133137878.89208984,-133139619.92578125,2782.5333927788806
123.01827239990234,2448.8046875,-184677127.875,-184679576.6796875,164.25584301273545
277.1851501464844,2035.20703125,-159023727.86523438,-159025763.07226562,913.2500244759661
325.6086120605469,1646.8984375,-229825403.15625,-229827050.0546875,7049.358631504064
91.83856201171875,2580.15625,-200692042.71875,-200694622.875,170.97176027624192
96.73941040039062,2564.109375,-202419677.078125,-202422241.1875,6898.88749870632
93.29670715332031,2592.046875,-205089647.140625,-205092239.1875,914.9890124154197
97.43898010253906,2563.06640625,-178492305.62890625,-178494868.6953125,164.31246799734933
223.53939819335938,2212.281494140625,-160335245.25146484,-160337457.53295898,170.42633704838337
227.4504852294922,2016.78125,-228872210.8125,-228874227.59375,6098.093684469967
91.80206298828125,2588.71875,-178479435.546875,-178482024.265625,6760.966457958722
95.108154296875,2580.09375,-165190545.6484375,-165193125.7421875,291.4551059321924
91.42886352539062,2599.1953125,-152844426.8671875,-152847026.0625,6679.915107742051
94.0309829711914,2582.375,-163289492.546875,-163292074.921875,6451.304115321365
242.1088409423828,2120.85498046875,-191241508.5756836,-191243629.43066406,163.38534422707394
103.95036315917969,2524.0,-196525341.609375,-196527865.609375,6269.798539883151
144.0893096923828,2402.640625,-219565640.9609375,-219568043.6015625,1098.9893880671982
172.40292358398438,2227.09375,-247816755.125,-247818982.21875,579.6464049755713
