loss,margin,positive_reward,negative_reward,deterministic_return
0.0,0.0,0.0,0.0,6.970259256941474
111.55393981933594,3157.994819752872,2492.883653573692,-665.1111661791801,451.1361130125833
87.66785430908203,3464.605437838234,3462.4190526008606,-2.1863852373735426,1228.1445819763187
86.00763702392578,3431.3496748805046,3936.116515636444,504.7668407559395,455.1620300569149
83.5351333618164,3394.7991160154343,4226.7826890945435,831.9835730791092,391.1943260297539
82.51056671142578,3341.4562371969223,4450.338866233826,1108.8826290369034,459.700058794281
82.0462875366211,3287.1688249111176,4628.803163528442,1341.6343386173248,433.48461029449004
81.24480438232422,3237.5548701286316,4772.2767877578735,1534.721917629242,454.14540502344687
80.27916717529297,3214.630752801895,4889.609727859497,1674.978975057602,481.9902648058981
79.18492126464844,3192.4832503795624,4976.776909828186,1784.2936594486237,608.9722548599777
78.80101013183594,3168.3402643203735,5044.298902511597,1875.9586381912231,7014.428501143921
78.21202087402344,3147.9823582172394,5083.324116706848,1935.3417584896088,986.9227929094942
77.64229583740234,3136.4235401153564,5122.528869628906,1986.1053295135498,1609.5515716385942
77.7380142211914,3112.9044845104218,5117.67268371582,2004.7681992053986,6738.952560873475
77.38777923583984,3099.8674743175507,5092.349025726318,1992.4815514087677,579.1729773663606
77.98453521728516,3082.152067899704,5055.363121032715,1973.2110531330109,4790.180788392733
77.71247863769531,3073.2627494335175,4992.473165512085,1919.2104160785675,421.03349471756445
77.88733673095703,3060.1462914943695,4860.678030967712,1800.531739473343,440.4976673005214
78.99470520019531,3042.181617498398,4569.765515327454,1527.5838978290558,3736.8564197553715
78.86509704589844,3034.7368124723434,4213.34001159668,1178.6031991243362,645.1275695085507
78.51832580566406,3033.5719254016876,3714.84445810318,681.2725327014923,432.5491908911138
78.5881118774414,3019.4960441797157,3334.404079914093,314.90803573437734,1997.0102311355274
78.62882232666016,3012.5566992443055,2761.415865421295,-251.14083382301033,611.1773088022545
79.39791107177734,3003.565419781953,1885.4552004151046,-1118.1102193668485,6635.860503021463
79.97647094726562,2987.4960192299914,593.9498104758095,-2393.546208754182,1456.3492101477952
79.87455749511719,2979.749962316826,-581.0399733316153,-3560.7899356484413,2355.448556169648
80.21630859375,2966.8817868232727,-2372.9799933433533,-5339.861780166626,6430.22625591228
80.66534423828125,2955.026579976082,-4435.835514426231,-7390.862094402313,2813.817873596481
81.20747375488281,2948.060308456421,-5669.673780441284,-8617.734088897705,6731.9010155650085
81.09432983398438,2941.5751762390137,-9180.406367301941,-12121.981543540955,6823.727487791922
81.60728454589844,2932.4524898529053,-13811.512912750244,-16743.96540260315,431.72034257011484
82.37873077392578,2915.094941139221,-17690.045189857483,-20605.140130996704,582.3449914159478
82.16053771972656,2918.0733757019043,-21869.86978149414,-24787.943157196045,444.6787254035135
82.75582885742188,2903.1336364746094,-28165.495991706848,-31068.629628181458,4708.855110173662
82.0488510131836,2906.2800254821777,-31715.155197143555,-34621.43522262573,573.497309761665
82.24649047851562,2904.990566253662,-39932.02100753784,-42837.011573791504,516.4917819782216
84.02523803710938,2889.1053647994995,-44463.52900981903,-47352.63437461853,618.4863615731209
82.1633529663086,2896.0427436828613,-50987.29615402222,-53883.33889770508,1831.838709509005
82.86579895019531,2886.1141815185547,-60477.80461883545,-63363.918800354004,659.5502664337615
82.62821960449219,2890.2392349243164,-70527.13017272949,-73417.36940765381,442.10708880167334
82.52239990234375,2886.2970581054688,-78035.1554107666,-80921.45246887207,423.3992733651826
84.05314636230469,2873.9426651000977,-92189.73714447021,-95063.67980957031,2302.5230033679277
81.99600982666016,2884.0593070983887,-108313.07588195801,-111197.1351890564,433.9931048734193
83.13729858398438,2875.0207290649414,-114048.44213867188,-116923.46286773682,450.2968132966869
84.61862182617188,2866.035873413086,-125849.80802154541,-128715.8438949585,532.0748946260923
81.67021179199219,2879.9100189208984,-156993.9973602295,-159873.9073791504,2718.825007276835
82.74263763427734,2874.9107971191406,-176457.27210998535,-179332.1829071045,409.4946705118566
84.45085906982422,2860.6103897094727,-193095.0012702942,-195955.61166000366,489.16613156570577
84.30176544189453,2862.2793579101562,-217855.1831665039,-220717.46252441406,419.90421314405035
83.41606140136719,2863.4312896728516,-229042.01713562012,-231905.44842529297,595.321567480209
83.506103515625,2864.8565063476562,-248343.14796447754,-251208.0044708252,413.32269379411116
83.188720703125,2865.6106567382812,-258389.80307006836,-261255.41372680664,573.6056694216994
84.44873046875,2859.1575927734375,-296381.3049926758,-299240.4625854492,2919.232299769652
82.62751007080078,2868.1933822631836,-325073.43521881104,-327941.6286010742,3338.445202661659
84.35659790039062,2852.888229370117,-375059.84742736816,-377912.7356567383,457.81076253106687
83.3751449584961,2857.7977294921875,-407534.08612060547,-410391.88385009766,4415.704659878121
83.27909851074219,2861.4246826171875,-454917.8278198242,-457779.2525024414,1303.8056172346592
83.59907531738281,2856.600128173828,-467648.3487854004,-470504.9489135742,628.4635306327432
83.39838409423828,2859.0546875,-510639.8846435547,-513498.9393310547,6508.337175337145
82.88262939453125,2861.601806640625,-545731.4028930664,-548593.004699707,537.4136291485978
118.58573150634766,2692.6640014648438,-560453.5194702148,-563146.1834716797,438.0569054990856
80.7568130493164,2859.700927734375,-634734.71875,-637594.4196777344,526.435544586259
83.83848571777344,2851.0989379882812,-646038.2105407715,-648889.3094787598,436.69284953854054
83.3857650756836,2856.880126953125,-689068.43359375,-691925.3137207031,493.4288865156774
82.79557800292969,2857.3904418945312,-776269.6488647461,-779127.0393066406,428.07997953188624
84.63996887207031,2852.5442504882812,-835915.1687011719,-838767.7129516602,970.9526370114124
81.84701538085938,2860.7152099609375,-943185.6655883789,-946046.3807983398,638.5111620433337
84.10680389404297,2846.2947998046875,-973248.6583557129,-976094.9531555176,542.849932605355
84.12510681152344,2840.3513793945312,-1062293.1544189453,-1065133.5057983398,486.73175158771545
83.09349822998047,2857.3099365234375,-1140645.2971191406,-1143502.607055664,510.8331686057033
82.36981964111328,2850.99658203125,-1242847.4482421875,-1245698.4448242188,547.2748066688055
85.44229888916016,2836.45556640625,-1282791.1239013672,-1285627.5794677734,2427.674216904583
84.07710266113281,2847.39794921875,-1351555.5692138672,-1354402.967163086,604.793674091295
84.18252563476562,2843.610107421875,-1482517.1903076172,-1485360.800415039,484.8475368011289
82.81414794921875,2848.7994384765625,-1558115.869140625,-1560964.6685791016,523.8971072656667
82.9925765991211,2848.181884765625,-1764803.3041992188,-1767651.4860839844,518.9756808784438
84.28678131103516,2842.9844970703125,-1820974.6680908203,-1823817.6525878906,616.5578171220768
85.41629028320312,2829.8618774414062,-1817110.593383789,-1819940.4552612305,425.94336714236766
82.29693603515625,2855.4326171875,-2186579.3266601562,-2189434.7592773438,500.7554294343784
83.78764343261719,2849.3463134765625,-2194494.6013183594,-2197343.947631836,452.11311388757673
85.0694351196289,2835.8348388671875,-2539047.8486328125,-2541883.6834716797,950.5730207477618
82.43140411376953,2848.50244140625,-2547365.880859375,-2550214.3833007812,1029.800412320188
83.16546630859375,2845.298583984375,-2802334.6997070312,-2805179.9982910156,447.2014737264215
345.74871826171875,1883.3031005859375,-2609531.1196899414,-2611414.4227905273,602.4609983670312
298.95672607421875,1858.26953125,-4972978.0556640625,-4974836.3251953125,2392.405973501297
126.15669250488281,2601.126953125,-7347901.060058594,-7350502.187011719,461.1975901483871
109.7188720703125,2668.6259765625,-7353665.064941406,-7356333.690917969,437.3149506474245
84.84246826171875,2807.18505859375,-7007524.5732421875,-7010331.758300781,446.4012757408015
86.24771118164062,2808.5791015625,-7710278.613769531,-7713087.192871094,880.6003718718335
87.96062469482422,2797.2777099609375,-8094829.549560547,-8097626.827270508,2194.0766545468873
188.66397094726562,2359.94775390625,-7268163.602172852,-7270523.549926758,613.3839142956557
85.71416473388672,2792.5546875,-8114672.41015625,-8117464.96484375,442.40661641760596
97.8927001953125,2737.64697265625,-8524665.002929688,-8527402.649902344,2366.219979971736
86.30559539794922,2805.913330078125,-8943088.103515625,-8945894.016845703,449.9280414006955
86.65589141845703,2803.9482421875,-9120761.646484375,-9123565.594726562,576.3858094035714
88.53221130371094,2793.95361328125,-7775776.116699219,-7778570.0703125,496.31851671862177
130.3654022216797,2596.38916015625,-8850079.020019531,-8852675.409179688,421.68210864120704
86.02546691894531,2802.98974609375,-9245732.48828125,-9248535.478027344,437.97416737293344
87.19691467285156,2798.39306640625,-10325658.437011719,-10328456.830078125,558.3876133141538
84.75746154785156,2821.3779296875,-10066003.047851562,-10068824.42578125,532.3479387831158
121.1842269897461,2664.84326171875,-9381321.645507812,-9383986.488769531,832.8268224366434
84.88661193847656,2812.09765625,-11084817.926757812,-11087630.024414062,578.9916901269507
338.0583190917969,1717.7068786621094,-5683371.772415161,-5685089.479293823,476.6536282387208
235.61566162109375,2025.943359375,-8502047.3515625,-8504073.294921875,3285.976401630127
137.6813507080078,2476.71484375,-14395080.705078125,-14397557.419921875,2216.243016654306
87.9715347290039,2772.013671875,-16516553.018554688,-16519325.032226562,527.1417804231875
87.60124969482422,2784.5126953125,-15385768.022460938,-15388552.53515625,627.7958211437957
86.5556640625,2794.30078125,-15873970.477783203,-15876764.778564453,539.1730015614138
276.0795593261719,2044.57568359375,-13803142.283203125,-13805186.858886719,514.5992078885641
105.33917236328125,2679.7119140625,-18435424.249023438,-18438103.9609375,518.0504432223555
104.98896789550781,2694.2763671875,-22111066.581054688,-22113760.857421875,494.89608617877775
86.34304809570312,2794.9375,-23186273.412109375,-23189068.349609375,1040.8470853986132
88.40518951416016,2789.25,-23031416.5546875,-23034205.8046875,566.9450659207589
198.7986602783203,2264.6845703125,-21774213.990234375,-21776478.674804688,508.61647394824405
90.87532043457031,2751.876953125,-25749985.388671875,-25752737.265625,439.13574639548284
87.30977630615234,2791.0361328125,-25516688.924804688,-25519479.9609375,6517.889708106068
181.49935913085938,2508.69873046875,-23506291.116210938,-23508799.814941406,459.81736932897593
256.41436767578125,1998.109375,-70874528.6953125,-70876526.8046875,444.89802681765696
87.29424285888672,2763.76953125,-60089566.89453125,-60092330.6640625,2211.727705969983
89.20333099365234,2768.7578125,-53277163.21875,-53279931.9765625,429.71430107253957
87.81108856201172,2777.5703125,-46008576.87890625,-46011354.44921875,450.66418988939876
88.3175277709961,2777.4609375,-47339131.125,-47341908.5859375,613.7656332816017
87.26882934570312,2791.5,-45413274.32421875,-45416065.82421875,542.8427080494165
211.70498657226562,2282.96875,-41688016.80078125,-41690299.76953125,597.9188614572379
215.68963623046875,2216.435546875,-49736037.37402344,-49738253.80957031,497.78745566668744
263.949462890625,1879.19921875,-51215783.40625,-51217662.60546875,887.5953633829199
134.2140350341797,2478.9609375,-61929377.8515625,-61931856.8125,444.6353397140153
86.77571105957031,2769.18359375,-60729105.94921875,-60731875.1328125,477.05726632269943
98.71648406982422,2706.75927734375,-56687506.12890625,-56690212.888183594,593.6024930909645
89.3623275756836,2752.265625,-81852177.984375,-81854930.25,499.2518723386889
89.12342834472656,2767.9609375,-68519197.09375,-68521965.0546875,986.5832773482618
92.43211364746094,2748.9140625,-65514583.6953125,-65517332.609375,852.240844614586
86.73941040039062,2783.3486328125,-62414177.07519531,-62416960.423828125,470.3783825652809
121.94152069091797,2615.677734375,-58090364.7109375,-58092980.388671875,570.2398764405572
141.9237518310547,2501.91015625,-62186433.3671875,-62188935.27734375,522.0857309988022
84.97866821289062,2786.046875,-90101763.953125,-90104550.0,995.4687730986672
178.60501098632812,2412.09765625,-70216061.40625,-70218473.50390625,493.0382759151473
103.6869888305664,2664.37109375,-79837111.984375,-79839776.35546875,547.8309883709488
167.92738342285156,2460.96875,-101891108.62890625,-101893569.59765625,449.660599345555
88.89336395263672,2761.7265625,-122075404.7421875,-122078166.46875,447.6462193343047
170.5092010498047,2470.85546875,-99635795.00585938,-99638265.86132812,898.8905307350567
215.35980224609375,2209.53125,-102429928.23828125,-102432137.76953125,608.5525437544592
89.19478607177734,2755.6171875,-170732888.640625,-170735644.2578125,960.4270640757209
92.2501449584961,2735.625,-170536472.796875,-170539208.421875,459.7503082904286
147.97293090820312,2488.3125,-176931325.453125,-176933813.765625,648.34755776042
91.76766204833984,2741.6015625,-261807577.828125,-261810319.4296875,5421.1485791282785
157.22555541992188,2504.5859375,-275406111.10546875,-275408615.69140625,487.4361004615576
88.95072174072266,2784.84375,-293850786.0,-293853570.84375,612.7992026454205
109.93600463867188,2728.55078125,-283395204.046875,-283397932.59765625,1879.570334657784
496.18646240234375,1154.875,-355786860.234375,-355788015.109375,463.2751276001019
102.11034393310547,2667.4375,-419493062.0625,-419495729.5,434.5713172374146
90.71318817138672,2742.125,-487342107.46875,-487344849.59375,650.5495115096406
88.89298248291016,2771.3125,-374465431.75,-374468203.0625,485.3496804411421
302.22247314453125,1876.9921875,-327234729.8984375,-327236606.890625,454.3395483185864
135.49649047851562,2474.125,-998312061.25,-998314535.375,492.31397768962404
96.36769104003906,2700.4375,-565270171.9375,-565272872.375,521.585811046659
87.40702056884766,2781.0,-367206447.4375,-367209228.4375,507.5659521693928
398.7833251953125,1613.6796875,-214471438.46875,-214473052.1484375,5980.940369006684
134.7239532470703,2525.21875,-313972455.78125,-313974981.0,909.8266786887252
89.28739166259766,2756.125,-472773286.875,-472776043.0,797.5175145849489
89.95045471191406,2755.125,-635117372.8125,-635120127.9375,439.9379066081833
203.46910095214844,2333.5625,-1249680837.40625,-1249683170.96875,496.63202738944665
97.11434173583984,2692.75,-2984436439.75,-2984439132.5,507.3817751396691
90.34181213378906,2743.0,-2373876234.25,-2373878977.25,458.387375351842
89.76570892333984,2742.0,-2587307251.25,-2587309993.25,3523.6203805509613
95.01114654541016,2712.5,-1489202948.625,-1489205661.125,816.2091968443275
90.88129425048828,2745.75,-2144818856.0,-2144821601.75,462.0448863886124
136.18359375,2530.125,-3565016318.25,-3565018848.375,527.0860431419762
90.65943908691406,2633.0,-11848349108.0,-11848351741.0,940.07843200944
90.61601257324219,2761.0,-8259593545.0,-8259596306.0,501.2090615661664
617.23486328125,1052.5,-20039699125.875,-20039700178.375,609.844526989589
97.42436218261719,2448.0,-2871849045912.0,-2871849048360.0,586.5747191976151
94.5544662475586,2304.0,-2287104774656.0,-2287104776960.0,602.2332762117666
95.10108184814453,3328.0,-2073605498368.0,-2073605501696.0,484.0212212167762
94.45303344726562,512.0,-5864957128192.0,-5864957128704.0,481.2782485197378
95.78659057617188,3072.0,-8545142197248.0,-8545142200320.0,426.8563734881596
114.71440887451172,1984.0,-1416260164032.0,-1416260166016.0,561.5063286732594
162.05288696289062,2272.0,-746152813120.0,-746152815392.0,491.4892302877209
90.57597351074219,2832.0,-180870450496.0,-180870453328.0,449.2711759451858
93.17521667480469,2456.0,-98802275440.0,-98802277896.0,461.55614662652255
93.04117584228516,2848.0,-209914012360.0,-209914015208.0,519.6500969514357
95.84233856201172,2560.0,-1554392310144.0,-1554392312704.0,554.7922258790495
95.70240020751953,1536.0,-1883873576704.0,-1883873578240.0,430.3059263482828
166.0133056640625,1920.0,-937939880512.0,-937939882432.0,456.52709611538376
152.698486328125,2272.0,-362842687168.0,-362842689440.0,549.2130381403888
92.59302520751953,2468.0,-72836701940.0,-72836704408.0,523.3053772472703
92.94252014160156,2384.0,-38927682264.0,-38927684648.0,527.9741685999973
91.66958618164062,2500.0,-44391860360.0,-44391862860.0,469.91356284207325
221.06716918945312,2016.0,-27002524136.0,-27002526152.0,404.1483743751245
101.9508056640625,2440.0,-39063773972.0,-39063776412.0,487.85495164027026
92.89112091064453,2624.0,-32293678278.0,-32293680902.0,508.094585706569
124.62109375,2468.0,-25711649338.0,-25711651806.0,471.1214127402203
314.4205627441406,1894.0,-25101118552.0,-25101120446.0,4012.3289977092795
170.70498657226562,2166.0,-15339341980.0,-15339344146.0,481.2787220841397
94.9719467163086,2670.0,-21604636370.0,-21604639040.0,497.68937261471973
93.41439056396484,2702.0,-10111894507.0,-10111897209.0,510.60742213500197
95.27367401123047,2608.0,-8322971493.0,-8322974101.0,585.4973702003343
243.4265594482422,2109.9140625,-3156978499.3515625,-3156980609.265625,875.261751728764
258.8670654296875,2145.25,-4547984052.0,-4547986197.25,640.5513151763338
325.4712219238281,1678.0,-9007038050.0,-9007039728.0,1179.0319421155407
293.8953552246094,1876.75,-6107806173.0,-6107808049.75,443.20286315757687
