loss,margin,positive_reward,negative_reward,deterministic_return
0.0,0.0,0.0,0.0,6.970259256941474
112.3884048461914,3150.806580618024,2486.4708406478167,-664.3357399702072,407.01382346260186
90.29180145263672,3441.8171938283485,3454.963016986847,13.145823158498388,1071.0526695630597
89.70721435546875,3400.373414158821,3967.054748058319,566.681333899498,525.9794921192307
87.93905639648438,3341.83622777462,4284.0107345581055,942.1745067834854,387.5054867820216
87.56392669677734,3271.5952483415604,4517.9126081466675,1246.3173598051071,469.55202031911415
87.09088134765625,3214.5832211971283,4690.5263748168945,1475.9431536197662,396.5746691478942
86.3704833984375,3161.1595964431763,4831.539423942566,1670.3798274993896,470.6980737575422
85.50621795654297,3132.5473878383636,4946.029609680176,1813.4822218418121,626.2480975601875
84.36317443847656,3111.183433532715,5022.029389381409,1910.8459558486938,430.7307811645859
83.79537963867188,3082.546264410019,5085.014071464539,2002.4678070545197,492.580893586936
83.70193481445312,3054.704562187195,5120.936126708984,2066.2315645217896,482.28956525874366
83.5612564086914,3037.286118030548,5148.479157447815,2111.193039417267,451.4040036885017
83.81673431396484,3018.505170106888,5132.212051391602,2113.7068812847137,496.08886754625587
83.3538818359375,3007.5093500614166,5090.387385368347,2082.8780353069305,2742.769573277374
83.40242767333984,2997.860308408737,5011.234968185425,2013.3746597766876,455.8934588564571
82.86958312988281,2992.216587305069,4907.121228218079,1914.9046409130096,406.83783460132724
83.99528503417969,2982.490402698517,4695.111527442932,1712.6211247444153,427.5148945210475
82.61890411376953,2978.77053129673,4405.413507461548,1426.6429761648178,2022.4191047534612
82.65931701660156,2980.6168271303177,4076.52930355072,1095.9124764204025,1497.3673488610839
83.19677734375,2978.5883973240852,3776.338352203369,797.7499548792839,425.71501205247023
83.10533905029297,2961.741704404296,3244.5753774642944,282.83367305999855,3058.8914480256153
82.55813598632812,2968.186186887964,2784.703265428543,-183.48292145942105,1333.4556484533002
81.77920532226562,2968.5738896382973,2032.584875702858,-935.9890139354393,6709.793478089336
82.61788940429688,2963.13992234692,894.9224423300475,-2068.2174800168723,2176.483365672528
82.20884704589844,2963.823612163018,-366.06229071860434,-3329.8859028816223,4766.270052988269
80.98133087158203,2967.217677824199,-1630.6358667090535,-4597.853544533253,6664.299394185539
82.25516510009766,2956.847922867164,-2884.335556918755,-5841.183479785919,4139.038459119692
81.67665100097656,2954.5276443958282,-4290.846339941025,-7245.373984336853,5736.828447758554
82.29785919189453,2954.4740058630705,-6604.703350618482,-9559.177356481552,422.65500131250724
81.31304931640625,2956.180486679077,-10921.938451766968,-13878.118938446045,496.7384272281971
82.63081359863281,2942.412709236145,-14791.499659538269,-17733.912368774414,4450.101841131787
82.45218658447266,2945.396146774292,-18573.443746566772,-21518.839893341064,2054.767618269091
83.943115234375,2922.0184936523438,-24088.5768699646,-27010.595363616943,5475.2194048390065
83.60446166992188,2934.135145187378,-27980.48254585266,-30914.61769104004,596.6269828170467
81.24150848388672,2946.745143890381,-34006.578125,-36953.32326889038,4617.365500299957
82.14583587646484,2937.471109390259,-36724.369733810425,-39661.84084320068,1671.918362798748
82.45448303222656,2933.2243509292603,-44941.66748714447,-47874.89183807373,1317.1531943607079
83.31156921386719,2923.6928176879883,-53111.59112548828,-56035.28394317627,638.5973629291971
82.81256866455078,2927.0992279052734,-64724.078132629395,-67651.17736053467,3905.1397437323453
94.50591278076172,2859.4527559280396,-74485.09061336517,-77344.54336929321,2012.6041438292564
82.49605560302734,2920.813184738159,-84258.04231834412,-87178.85550308228,5987.367592225149
82.01396942138672,2924.4993591308594,-102850.56414794922,-105775.06350708008,1642.527595358893
82.64334106445312,2919.961006164551,-118576.58888244629,-121496.54988861084,431.89246808177666
82.2822036743164,2916.906021118164,-141536.42156982422,-144453.32759094238,3343.846587303584
82.02671813964844,2922.8954696655273,-158099.40436553955,-161022.29983520508,3740.734113920936
83.13704681396484,2912.591781616211,-178971.1907196045,-181883.7825012207,6630.8308619377385
82.59268951416016,2911.5120697021484,-205163.95756530762,-208075.46963500977,2400.465127397959
82.9817886352539,2907.220039367676,-217361.61603546143,-220268.8360748291,3377.8768554878948
82.02934265136719,2916.515640258789,-238361.040725708,-241277.5563659668,1781.854029634526
84.33980560302734,2898.2492065429688,-285959.1880187988,-288857.4372253418,6341.029493683564
82.13981628417969,2908.8923950195312,-332709.30696105957,-335618.1993560791,460.15969313651374
84.02426147460938,2891.303192138672,-374243.91818237305,-377135.2213745117,3828.5325074985517
96.8523178100586,2820.230484008789,-386258.7045135498,-389078.9349975586,5991.609880074138
83.93598175048828,2887.4007873535156,-489643.13259887695,-492530.53338623047,2049.138765463694
82.58744812011719,2890.80322265625,-504935.1183319092,-507825.92155456543,469.77757982142833
84.30062866210938,2886.6690368652344,-545987.4479675293,-548874.1170043945,427.2473205834979
81.82533264160156,2894.7427368164062,-673658.2319641113,-676552.9747009277,436.1614920337369
93.2762680053711,2822.003387451172,-705643.6345214844,-708465.6379089355,5240.112689360702
82.3393783569336,2889.6641235351562,-799266.6486206055,-802156.3127441406,1499.1779172333684
82.0186767578125,2889.7689208984375,-953496.9632568359,-956386.7321777344,468.2638528799543
85.40611267089844,2869.439697265625,-1039256.2768554688,-1042125.7165527344,485.7334249046613
84.40354919433594,2872.4741821289062,-1255186.6872558594,-1258059.1614379883,507.90239268723155
83.47752380371094,2882.7662353515625,-1317299.296875,-1320182.0631103516,431.67590148734797
83.79828643798828,2876.697998046875,-1455916.772644043,-1458793.4706420898,467.71502011525115
83.70228576660156,2875.3685302734375,-1715429.5311279297,-1718304.8996582031,646.4542531039594
82.59031677246094,2882.1571044921875,-1857320.4855957031,-1860202.6427001953,1485.2979092848311
88.75238800048828,2835.4427490234375,-1828295.0291748047,-1831130.4719238281,2890.7705923351427
83.99486541748047,2862.57666015625,-2146485.03125,-2149347.6079101562,6627.77438530202
83.0550308227539,2875.32861328125,-2234548.199951172,-2237423.528564453,434.5659910156071
133.31289672851562,2664.8599853515625,-2622385.465576172,-2625050.3255615234,1775.2920122077248
105.75141143798828,2723.755615234375,-2944458.861328125,-2947182.6169433594,561.1634492089852
154.47463989257812,2537.1497802734375,-2840283.48248291,-2842820.6322631836,586.7037203965268
83.38467407226562,2852.119384765625,-3824672.2919921875,-3827524.411376953,446.4487849020758
84.40756225585938,2850.8623046875,-4035364.26171875,-4038215.1240234375,3703.0764261619133
84.6898193359375,2846.0693359375,-4464219.152832031,-4467065.222167969,859.7106426501944
86.7794418334961,2834.142333984375,-4459116.535400391,-4461950.677734375,6813.518718125474
82.7160873413086,2857.08984375,-5239811.814453125,-5242668.904296875,837.0976697693355
191.82177734375,2427.5778045654297,-1866555.974822998,-1868983.5526275635,698.6304026167364
151.1650848388672,2550.49609375,-6024334.968994141,-6026885.465087891,447.1920675347679
84.16248321533203,2837.136474609375,-6515185.118408203,-6518022.2548828125,431.1276805268871
85.90482330322266,2826.29736328125,-6787022.8701171875,-6789849.167480469,2930.7678133658837
84.76569366455078,2836.882568359375,-6908071.908447266,-6910908.791015625,807.3338801943803
85.99198913574219,2825.1025390625,-7772942.046875,-7775767.1494140625,503.52227480020247
89.12792205810547,2808.380859375,-7965958.154785156,-7968766.535644531,619.6272920936856
256.518798828125,2131.447021484375,-8594487.242675781,-8596618.689697266,451.11601147910824
86.07950592041016,2807.642578125,-9731726.78125,-9734534.423828125,5432.92043461251
87.77088165283203,2803.07177734375,-10637457.149902344,-10640260.221679688,816.1883917609846
88.76790618896484,2798.921630859375,-10719420.026489258,-10722218.948120117,424.37665633722173
85.90348052978516,2813.283203125,-13156667.821289062,-13159481.104492188,2256.8801584976245
85.7764663696289,2818.916015625,-13156545.413085938,-13159364.329101562,405.42898966821963
86.26537322998047,2816.9091796875,-12409075.213867188,-12411892.123046875,429.15759533683683
85.9455795288086,2809.849609375,-15079841.977539062,-15082651.827148438,436.12129544448135
90.26299285888672,2786.275390625,-18087504.875976562,-18090291.151367188,1253.6691491863676
215.29644775390625,2456.9588317871094,-16101264.264129639,-16103721.222961426,318.87413488271056
492.2538146972656,1457.1064453125,-58419860.17089844,-58421317.27734375,462.89257208631136
88.36676025390625,2769.0625,-55570888.869140625,-55573657.931640625,419.15214556744786
89.94686889648438,2762.8017578125,-48083427.86376953,-48086190.665527344,1060.9953811376492
92.66854858398438,2747.73828125,-44630879.984375,-44633627.72265625,851.845400583034
261.0665588378906,2077.796630859375,-35722366.69091797,-35724444.48754883,468.91556637632215
87.70360565185547,2756.0234375,-59632862.703125,-59635618.7265625,4944.446876274475
87.53778076171875,2774.7109375,-56141388.015625,-56144162.7265625,2781.9396765913957
88.4422378540039,2772.5625,-46430635.36328125,-46433407.92578125,427.8654217174412
87.34766387939453,2786.50390625,-44360912.228515625,-44363698.732421875,542.7120641101809
90.62266540527344,2761.4765625,-47540484.29003906,-47543245.76660156,876.4761823345614
91.7854995727539,2752.2109375,-44828225.66796875,-44830977.87890625,429.12428068551236
88.59597778320312,2774.263671875,-44816247.388671875,-44819021.65234375,420.1186713871053
86.66775512695312,2786.265625,-51801788.33203125,-51804574.59765625,589.3661653390499
346.6649475097656,1957.3701171875,-93354361.87939453,-93356319.24951172,411.2831487296267
87.65956115722656,2759.2421875,-75833303.1328125,-75836062.375,442.27906544893835
88.9507827758789,2765.14453125,-72574433.90625,-72577199.05078125,407.1112802262514
93.83785247802734,2729.2734375,-77731339.359375,-77734068.6328125,406.4833257343174
252.47288513183594,2187.7882080078125,-51400537.73510742,-51402725.52331543,375.2725620910796
441.8945617675781,1325.798828125,-103119748.96679688,-103121074.765625,416.246270661135
216.7486114501953,2160.90625,-216451654.75,-216453815.65625,517.6084661027427
98.27813720703125,2672.265625,-196908374.671875,-196911046.9375,597.6030510138186
91.34335327148438,2724.125,-233151246.71875,-233153970.84375,927.2907694174424
90.88873291015625,2725.515625,-191422431.9375,-191425157.453125,6542.534517576693
101.40031433105469,2676.359375,-224535862.765625,-224538539.125,3066.491730479113
93.73228454589844,2719.125,-206070075.21875,-206072794.34375,960.7268840853521
89.75031280517578,2743.796875,-249089483.609375,-249092227.40625,508.74655887396716
90.97975158691406,2737.8125,-195086473.109375,-195089210.921875,443.32588569633634
273.451904296875,1977.9921875,-147572607.59375,-147574585.5859375,600.0790707394165
154.54299926757812,2395.390625,-153490181.53125,-153492576.921875,6634.112855428685
158.30471801757812,2399.03125,-162351803.90722656,-162354202.93847656,2358.8517548478644
92.4747085571289,2706.09765625,-139386449.49609375,-139389155.59375,416.4490881669755
99.29586791992188,2673.3359375,-129522322.203125,-129524995.5390625,422.8423033413983
89.62864685058594,2725.18359375,-124139569.56640625,-124142294.75,522.9079943245163
545.024658203125,1457.1925048828125,-112940657.51342773,-112942114.70593262,513.8967161208492
990.4742431640625,-64.34375,-261032798.234375,-261032733.890625,647.1823506188105
102.86236572265625,2578.34375,-405946414.109375,-405948992.453125,399.03274878032994
93.31163024902344,2674.390625,-340134087.96875,-340136762.359375,666.4498996991497
94.32743072509766,2670.328125,-234205965.265625,-234208635.59375,3536.275676699488
95.52986907958984,2666.5546875,-221559194.8046875,-221561861.359375,442.78007716173045
205.3131866455078,2276.9140625,-165306533.65625,-165308810.5703125,822.0224821223236
130.7289581298828,2508.015625,-223053696.8125,-223056204.828125,6417.337603299488
94.6007308959961,2678.8359375,-195628263.5546875,-195630942.390625,3759.825159665821
498.5226135253906,1710.689453125,-194213567.04748535,-194215277.73693848,1254.8386609128358
411.73193359375,1762.46875,-309946204.4921875,-309947966.9609375,402.1980925505349
93.66190338134766,2674.125,-388420015.859375,-388422689.984375,867.9271595169267
393.07818603515625,1489.009765625,-283470662.90625,-283472151.9160156,437.29137067694967
102.07662963867188,2621.3125,-724776346.875,-724778968.1875,438.43187921794197
92.63592529296875,2680.6875,-438304822.3125,-438307503.0,468.15423427234384
97.57908630371094,2657.9375,-361117604.890625,-361120262.828125,418.50108852502507
260.6552429199219,2027.640625,-334646177.34375,-334648204.984375,426.0558637573673
142.90069580078125,2426.125,-266575303.40625,-266577729.53125,420.46966433884666
426.5936584472656,1566.703125,-321605490.07714844,-321607056.78027344,472.8138529100207
92.2879638671875,2672.125,-396839465.34375,-396842137.46875,426.33994522042207
379.1326599121094,1553.71484375,-314451940.6777344,-314453494.3925781,411.24476057430695
240.7705535888672,1936.578125,-352279853.140625,-352281789.71875,439.24747066547127
95.14772033691406,2641.78125,-408367074.6875,-408369716.46875,665.0477639763707
450.7680358886719,1329.9833984375,-295651713.9121094,-295653043.8955078,1236.8851516844152
175.89678955078125,2258.15625,-558127580.53125,-558129838.6875,432.53919171398405
101.73300170898438,2606.125,-450723607.28125,-450726213.40625,1328.974972622416
99.16314697265625,2629.59375,-384765313.875,-384767943.46875,496.42929596292214
417.3711242675781,1460.19921875,-255519135.33398438,-255520595.53320312,378.5138971021868
244.55523681640625,1974.28125,-361323138.8125,-361325113.09375,471.1982182017812
95.97332763671875,2617.5,-440857365.8125,-440859983.3125,490.7725445173587
97.3365478515625,2640.984375,-351452203.765625,-351454844.75,501.8045302658034
97.32962799072266,2643.21875,-392081238.84375,-392083882.0625,485.7692601434302
301.8821105957031,1793.55078125,-206246671.6875,-206248465.23828125,505.4719210521171
99.56147003173828,2599.8125,-278959108.6875,-278961708.5,416.93190851467085
426.281494140625,1404.1806640625,-308356708.36621094,-308358112.546875,554.8429424721918
96.36697387695312,2624.28125,-418433422.375,-418436046.65625,448.8948041844726
95.15711212158203,2651.28125,-378513049.09375,-378515700.375,654.8822849596565
308.1064453125,1858.5390625,-435464841.86328125,-435466700.40234375,443.15152429306886
93.3492431640625,2622.0625,-576708496.125,-576711118.1875,431.33904253596717
232.86619567871094,2151.4921875,-315080901.75219727,-315083053.24438477,467.68277539294144
97.29998016357422,2624.875,-488797872.1875,-488800497.0625,433.13309949560653
94.62256622314453,2637.46875,-518558824.125,-518561461.59375,449.5989414266048
381.9474182128906,1652.412109375,-298155366.6230469,-298157019.03515625,424.4402041404536
122.90640258789062,2471.625,-767580598.5625,-767583070.1875,663.8456226442202
170.7391357421875,2296.171875,-561960131.859375,-561962428.03125,431.7278652164943
99.7715835571289,2623.71875,-528355929.0625,-528358552.78125,541.5875637204641
242.2283935546875,2019.984375,-543932236.578125,-543934256.5625,453.52812154655885
270.5358581542969,2103.94921875,-579415235.21875,-579417339.1679688,250.25181398367013
180.41925048828125,2314.65625,-302915196.4140625,-302917511.0703125,434.98409855519526
281.24969482421875,2014.447265625,-442953027.015625,-442955041.4628906,366.0416163928754
195.06629943847656,2157.75,-586497994.0625,-586500151.8125,451.67158464408163
262.57696533203125,1953.29296875,-474930467.359375,-474932420.65234375,425.30292696014516
162.84539794921875,2287.75,-1046452770.1875,-1046455057.9375,590.1425285410808
208.18414306640625,2366.9090576171875,-782081845.9852905,-782084212.8943481,1159.8350052991586
415.4044494628906,1672.984375,-1316427031.2480469,-1316428704.2324219,599.0045027796533
96.93698120117188,2613.625,-1518823257.375,-1518825871.0,443.74697013401965
366.10516357421875,1832.94482421875,-642149595.1420898,-642151428.0869141,1163.9534827737077
345.9975891113281,1601.78125,-705968010.6875,-705969612.46875,521.8082543854437
92.83836364746094,2600.5,-1005166931.5625,-1005169532.0625,438.88692437586604
100.16880798339844,2581.1875,-738828986.625,-738831567.8125,478.9700404972267
281.69805908203125,1943.05859375,-1214426507.46875,-1214428450.5273438,435.07301231686495
96.84382629394531,2572.25,-1171734995.625,-1171737567.875,978.9826225061823
159.6117706298828,2340.90625,-852396508.1875,-852398849.09375,497.7898954105162
93.93604278564453,2602.875,-1015569785.125,-1015572388.0,2892.6031046957914
140.39268493652344,2412.40625,-783345818.9375,-783348231.34375,416.6436429669992
295.9997863769531,1880.853515625,-636747751.4902344,-636749632.34375,1055.527206555628
134.26222229003906,2411.75,-1074285302.9375,-1074287714.6875,494.8440189041574
169.51023864746094,2368.65625,-1252703622.5625,-1252705991.21875,488.9809222465484
119.21284484863281,2482.75,-1107172155.25,-1107174638.0,430.88850020514036
220.5950469970703,2162.13671875,-1136639593.8632812,-1136641756.0,454.96407500715753
146.30648803710938,2358.5,-1160231770.625,-1160234129.125,450.02892160089095
767.6318969726562,971.69384765625,-823388221.7421875,-823389193.4360352,600.8885909225216
687.021240234375,540.875,-3989736683.125,-3989737224.0,379.60605180895107
